{"learner":{"attributes":{},"feature_names":[],"feature_types":[],"gradient_booster":{"model":{"cats":{"enc":[],"feature_segments":[],"sorted_idx":[]},"gbtree_model_param":{"num_parallel_tree":"1","num_trees":"200"},"iteration_indptr":[0,1,2,3,4,5,6,7,8,9,10,11,12,13,14,15,16,17,18,19,20,21,22,23,24,25,26,27,28,29,30,31,32,33,34,35,36,37,38,39,40,41,42,43,44,45,46,47,48,49,50,51,52,53,54,55,56,57,58,59,60,61,62,63,64,65,66,67,68,69,70,71,72,73,74,75,76,77,78,79,80,81,82,83,84,85,86,87,88,89,90,91,92,93,94,95,96,97,98,99,100,101,102,103,104,105,106,107,108,109,110,111,112,113,114,115,116,117,118,119,120,121,122,123,124,125,126,127,128,129,130,131,132,133,134,135,136,137,138,139,140,141,142,143,144,145,146,147,148,149,150,151,152,153,154,155,156,157,158,159,160,161,162,163,164,165,166,167,168,169,170,171,172,173,174,175,176,177,178,179,180,181,182,183,184,185,186,187,188,189,190,191,192,193,194,195,196,197,198,199,200],"tree_info":[0,0,0,0,0,0,0,0,0,0,0,0,0,0,0,0,0,0,0,0,0,0,0,0,0,0,0,0,0,0,0,0,0,0,0,0,0,0,0,0,0,0,0,0,0,0,0,0,0,0,0,0,0,0,0,0,0,0,0,0,0,0,0,0,0,0,0,0,0,0,0,0,0,0,0,0,0,0,0,0,0,0,0,0,0,0,0,0,0,0,0,0,0,0,0,0,0,0,0,0,0,0,0,0,0,0,0,0,0,0,0,0,0,0,0,0,0,0,0,0,0,0,0,0,0,0,0,0,0,0,0,0,0,0,0,0,0,0,0,0,0,0,0,0,0,0,0,0,0,0,0,0,0,0,0,0,0,0,0,0,0,0,0,0,0,0,0,0,0,0,0,0,0,0,0,0,0,0,0,0,0,0,0,0,0,0,0,0,0,0,0,0,0,0,0,0,0,0,0,0],"trees":[{"base_weights":[-1.1899734E-3,-1.5722617E0,1.1341158E0,-1.8060106E0,1.3194357E0,1.2693399E0,-1.9591354E0,-9.43339E-1,-1.8907688E0,1.1912913E-1,1.8903395E0,-1.1820177E0,1.4256341E0,-1.99792E0,-1.1636172E-1,-1.8707895E0,4.4055498E-1,1.0166218E0,-1.9154503E0,1.3175396E0,-1.1729723E0,1.9631752E-1,-1.4446595E-1,-1.6857716E0,-8.830336E-2,1.5219747E0,-9.051354E-1,-2.9606415E-2,-2.0092872E-1,1.1983166E-1,-1.2870477E-1,-1.9535042E-1,7.4649416E-2,-9.9695966E-2,1.5202512E-1,-1.6373001E-1,1.850238E-1,-1.9284184E-1,1.7442746E-1,-5.9928007E-2,1.7357837E-1,1.5172644E-1,-1.5299736E-1,-1.8309252E-1,7.52556E-2,-1.7454343E-1,9.1849856E-2,1.5908775E-1,-6.1618168E-2,1.0567613E-1,-1.6344057E-1],"categories":[],"categories_nodes":[],"categories_segments":[],"categories_sizes":[],"default_left":[0,0,0,0,0,0,0,0,0,0,0,0,0,0,0,0,0,0,0,0,0,0,0,0,0,0,0,0,0,0,0,0,0,0,0,0,0,0,0,0,0,0,0,0,0,0,0,0,0,0,0],"id":0,"left_children":[1,3,5,7,9,11,13,15,17,19,21,23,25,27,29,31,33,35,37,39,41,-1,-1,43,45,47,49,-1,-1,-1,-1,-1,-1,-1,-1,-1,-1,-1,-1,-1,-1,-1,-1,-1,-1,-1,-1,-1,-1,-1,-1],"loss_changes":[1.1448466E4,1.8223564E3,1.5610171E3,1.8039795E2,1.3816324E2,1.3696904E3,1.0949707E1,2.894776E2,1.646753E2,1.0399321E2,3.6063385E1,1.1806317E2,7.551875E2,2.368225E0,8.140151E0,3.0650635E1,1.4283475E2,4.6706276E1,1.1009863E2,2.8935963E1,3.3405235E1,0E0,0E0,5.334964E1,1.16246216E2,4.759756E2,1.9327466E2,0E0,0E0,0E0,0E0,0E0,0E0,0E0,0E0,0E0,0E0,0E0,0E0,0E0,0E0,0E0,0E0,0E0,0E0,0E0,0E0,0E0,0E0,0E0,0E0],"parents":[2147483647,0,0,1,1,2,2,3,3,4,4,5,5,6,6,7,7,8,8,9,9,10,10,11,11,12,12,13,13,14,14,15,15,16,16,17,17,18,18,19,19,20,20,23,23,24,24,25,25,26,26],"right_children":[2,4,6,8,10,12,14,16,18,20,22,24,26,28,30,32,34,36,38,40,42,-1,-1,44,46,48,50,-1,-1,-1,-1,-1,-1,-1,-1,-1,-1,-1,-1,-1,-1,-1,-1,-1,-1,-1,-1,-1,-1,-1,-1],"split_conditions":[3E-3,1.2E-4,4.126E-1,2.1E-3,1.115E1,1.25E-5,1.16E0,2E-4,-4.3514E1,3E-4,-7.5E-1,2E-5,6.1E-3,1.3313527E-1,3.93E0,2.965E-1,2.2E-3,1.39E-3,4.496E1,1.2222222E-4,-4.507E1,1.9631752E-1,-1.4446595E-1,-8.8E-1,8E-4,1.4811112E0,2E-4,-2.9606415E-2,-2.0092872E-1,1.1983166E-1,-1.2870477E-1,-1.9535042E-1,7.4649416E-2,-9.9695966E-2,1.5202512E-1,-1.6373001E-1,1.850238E-1,-1.9284184E-1,1.7442746E-1,-5.9928007E-2,1.7357837E-1,1.5172644E-1,-1.5299736E-1,-1.8309252E-1,7.52556E-2,-1.7454343E-1,9.1849856E-2,1.5908775E-1,-6.1618168E-2,1.0567613E-1,-1.6344057E-1],"split_indices":[95,31,0,169,178,31,29,189,58,102,29,39,169,88,27,156,185,37,208,135,27,0,0,179,150,148,175,0,0,0,0,0,0,0,0,0,0,0,0,0,0,0,0,0,0,0,0,0,0,0,0],"split_type":[0,0,0,0,0,0,0,0,0,0,0,0,0,0,0,0,0,0,0,0,0,0,0,0,0,0,0,0,0,0,0,0,0,0,0,0,0,0,0,0,0,0,0,0,0,0,0,0,0,0,0],"sum_hessian":[6.4165723E3,2.6915442E3,3.725028E3,2.4905938E3,2.0095041E2,3.569571E3,1.5545714E2,2.2389671E2,2.266697E3,6.5160736E1,1.3578967E2,2.135553E2,3.3560156E3,1.5217024E2,3.2868984E0,1.3384521E2,9.005149E1,1.8742285E1,2.2479548E3,3.37958E1,3.1364935E1,1.3329E2,2.499688E0,1.4584103E2,6.7714264E1,3.2231367E3,1.3287881E2,1.1890826E0,1.5098116E2,1.5371168E0,1.7497816E0,1.2999069E2,3.8545208E0,3.8658257E1,5.139323E1,4.2494698E0,1.4492816E1,2.2404888E3,7.465996E0,5.975794E0,2.7820005E1,3.2938218E0,2.8071114E1,1.3788202E2,7.95901E0,2.5314533E1,4.2399727E1,3.1227607E3,1.0037595E2,3.5886692E1,9.699213E1],"tree_param":{"num_deleted":"0","num_feature":"210","num_nodes":"51","size_leaf_vector":"1"}},{"base_weights":[1.3990197E-3,-1.3809485E0,1.0623453E0,-1.6255046E0,1.029547E0,1.2302068E0,-1.7092109E0,-1.7667711E0,-1.1915329E0,-7.5691655E-2,1.740751E0,1.39564E0,-8.2998806E-1,-1.8094091E0,1.3289211E0,-1.7808046E0,-6.515153E-1,-1.5015402E0,7.8004676E-1,9.629995E-1,-1.0391221E0,1.7877324E0,-8.6513734E-1,1.4867282E0,-5.7006294E-1,-1.5599204E0,3.472101E-1,-1.8451318E0,-4.4814685E-1,1.5351383E-1,1.337715E-2,-1.7826046E-1,6.455545E-2,9.9533945E-2,-1.3119462E-1,1.342607E-1,-1.5699689E-1,1.177144E-1,-1.590941E-1,-1.2782542E-1,1.3539559E-1,1.6167057E-1,-1.5073381E-1,3.7584946E-2,1.8000177E-1,-1.04550995E-1,-2.8305033E-2,8.921386E-2,1.7073762E-1,-1.5630333E-1,5.923474E-2,1.6441678E-1,-1.7154792E-1,1.0827439E-1,-9.474995E-2,-8.313797E-2,-1.8574171E-1,-1.4472722E-1,1.2145313E-1],"categories":[],"categories_nodes":[],"categories_segments":[],"categories_sizes":[],"default_left":[0,0,0,0,0,0,0,0,0,0,0,0,0,0,0,0,0,0,0,0,0,0,0,0,0,0,0,0,0,0,0,0,0,0,0,0,0,0,0,0,0,0,0,0,0,0,0,0,0,0,0,0,0,0,0,0,0,0,0],"id":1,"left_children":[1,3,5,7,9,11,13,15,17,19,21,23,25,27,29,31,33,35,37,39,41,43,45,47,49,51,53,55,57,-1,-1,-1,-1,-1,-1,-1,-1,-1,-1,-1,-1,-1,-1,-1,-1,-1,-1,-1,-1,-1,-1,-1,-1,-1,-1,-1,-1,-1,-1],"loss_changes":[9.34483E3,1.6327095E3,1.6792737E3,1.5191602E2,2.0093777E2,1.159855E3,6.520184E1,2.847168E1,3.801485E2,1.0205314E2,2.0581818E1,5.6439014E2,2.1822104E2,8.904846E0,1.5599785E0,9.313965E0,2.861048E1,1.0645264E2,8.18133E1,4.4763863E1,6.818021E1,1.9782104E0,6.391835E-2,3.9314355E2,1.626446E2,8.0849945E1,9.413897E1,8.804321E-1,1.2453155E1,0E0,0E0,0E0,0E0,0E0,0E0,0E0,0E0,0E0,0E0,0E0,0E0,0E0,0E0,0E0,0E0,0E0,0E0,0E0,0E0,0E0,0E0,0E0,0E0,0E0,0E0,0E0,0E0,0E0,0E0],"parents":[2147483647,0,0,1,1,2,2,3,3,4,4,5,5,6,6,7,7,8,8,9,9,10,10,11,11,12,12,13,13,14,14,15,15,16,16,17,17,18,18,19,19,20,20,21,21,22,22,23,23,24,24,25,25,26,26,27,27,28,28],"right_children":[2,4,6,8,10,12,14,16,18,20,22,24,26,28,30,32,34,36,38,40,42,44,46,48,50,52,54,56,58,-1,-1,-1,-1,-1,-1,-1,-1,-1,-1,-1,-1,-1,-1,-1,-1,-1,-1,-1,-1,-1,-1,-1,-1,-1,-1,-1,-1,-1,-1],"split_conditions":[3.3E-3,1.1E-4,4.27E-1,1.1E-3,1.115E1,8.1E-3,2.13E0,6.9695875E-2,2E-4,3E-4,4.4E-1,1.2944444E0,2.7E-3,1.58E0,3.09E-2,4.488E1,2E-4,2.56E-3,1.48E-3,6E-4,-4.507E1,8E-5,5.3E-3,7.1E-3,4.5E-4,1.8466185E-4,4.811111E-1,1.5741664E-1,6.8E-3,1.5351383E-1,1.337715E-2,-1.7826046E-1,6.455545E-2,9.9533945E-2,-1.3119462E-1,1.342607E-1,-1.5699689E-1,1.177144E-1,-1.590941E-1,-1.2782542E-1,1.3539559E-1,1.6167057E-1,-1.5073381E-1,3.7584946E-2,1.8000177E-1,-1.04550995E-1,-2.8305033E-2,8.921386E-2,1.7073762E-1,-1.5630333E-1,5.923474E-2,1.6441678E-1,-1.7154792E-1,1.0827439E-1,-9.474995E-2,-8.313797E-2,-1.8574171E-1,-1.4472722E-1,1.2145313E-1],"split_indices":[95,31,180,95,178,167,209,81,159,102,209,148,163,209,2,27,156,47,53,196,27,40,0,95,53,62,149,88,21,0,0,0,0,0,0,0,0,0,0,0,0,0,0,0,0,0,0,0,0,0,0,0,0,0,0,0,0,0,0],"split_type":[0,0,0,0,0,0,0,0,0,0,0,0,0,0,0,0,0,0,0,0,0,0,0,0,0,0,0,0,0,0,0,0,0,0,0,0,0,0,0,0,0,0,0,0,0,0,0,0,0,0,0,0,0,0,0,0,0,0,0],"sum_hessian":[6.3697803E3,2.7658052E3,3.603975E3,2.5113433E3,2.5446199E2,3.398687E3,2.0528821E2,1.8922931E3,6.1905005E2,9.9981094E1,1.544809E2,3.146358E3,2.5232913E2,1.9912544E2,6.1627617E0,1.8681885E3,2.4104633E1,5.351435E2,8.390652E1,4.811159E1,5.18695E1,1.520535E2,2.4273908E0,3.0072493E3,1.3910854E2,1.5555237E2,9.6776764E1,1.9368718E2,5.4382634E0,5.013273E0,1.1494888E0,1.8670687E3,1.1197768E0,6.754489E0,1.7350143E1,1.2135283E1,5.2300824E2,7.230095E1,1.1605566E1,6.808816E0,4.1302776E1,7.406313E0,4.446319E1,1.5841904E0,1.5046931E2,1.245351E0,1.1820399E0,8.152915E2,2.1919578E3,7.4836235E1,6.42723E1,6.759315E0,1.4879306E2,6.182006E1,3.49567E1,3.1413598E0,1.9054582E2,3.4779007E0,1.9603629E0],"tree_param":{"num_deleted":"0","num_feature":"210","num_nodes":"59","size_leaf_vector":"1"}},{"base_weights":[-6.285048E-4,-1.3057839E0,9.630397E-1,-1.5050061E0,1.0679244E0,1.11306E0,-1.5584629E0,-8.333379E-1,-1.5953736E0,9.999385E-2,1.594945E0,1.2669543E0,-7.1979487E-1,-1.7125164E0,1.0795106E0,-1.5598599E0,1.7825767E-1,1.3646501E-1,-1.6046046E0,-6.754657E-1,1.7131996E0,1.6594284E0,-1.293342E-1,1.3589239E0,-9.0114576E-1,-1.4349834E0,3.9670193E-1,-1.7203027E-1,-2.3255872E-2,1.5899615E-1,-1.1849914E-1,-1.6757427E-1,-7.711579E-2,1.20758235E-1,-6.954444E-2,-1.618566E-1,-5.198414E-2,1.4835502E-1,-1.2079822E-1,4.9449574E-2,1.7498104E-1,4.695521E-2,1.6658013E-1,4.914559E-2,1.5022427E-1,1.607705E-1,-1.2352015E-1,-1.6586976E-1,-1.4105401E-2,8.5442886E-2,-1.7259993E-1],"categories":[],"categories_nodes":[],"categories_segments":[],"categories_sizes":[],"default_left":[0,0,0,0,0,0,0,0,0,0,0,0,0,0,0,0,0,0,0,0,0,0,0,0,0,0,0,0,0,0,0,0,0,0,0,0,0,0,0,0,0,0,0,0,0,0,0,0,0,0,0],"id":2,"left_children":[1,3,5,7,9,11,13,15,17,19,21,23,25,27,29,31,33,-1,35,37,39,41,-1,43,45,47,49,-1,-1,-1,-1,-1,-1,-1,-1,-1,-1,-1,-1,-1,-1,-1,-1,-1,-1,-1,-1,-1,-1,-1,-1],"loss_changes":[7.856272E3,1.2562461E3,1.3609783E3,1.472622E2,1.0493257E2,9.576968E2,8.401941E1,2.1517961E2,6.1118652E1,9.3346596E1,2.6976746E1,6.252798E2,2.1088597E2,1.8057861E0,1.5489054E1,1.427121E1,1.11565025E2,0E0,3.1726074E1,5.9837692E1,2.1477509E-1,2.0999146E-1,0E0,3.7257227E2,1.09226845E2,4.6302338E1,1.02157845E2,0E0,0E0,0E0,0E0,0E0,0E0,0E0,0E0,0E0,0E0,0E0,0E0,0E0,0E0,0E0,0E0,0E0,0E0,0E0,0E0,0E0,0E0,0E0,0E0],"parents":[2147483647,0,0,1,1,2,2,3,3,4,4,5,5,6,6,7,7,8,8,9,9,10,10,11,11,12,12,13,13,14,14,15,15,16,16,18,18,19,19,20,20,21,21,23,23,24,24,25,25,26,26],"right_children":[2,4,6,8,10,12,14,16,18,20,22,24,26,28,30,32,34,-1,36,38,40,42,-1,44,46,48,50,-1,-1,-1,-1,-1,-1,-1,-1,-1,-1,-1,-1,-1,-1,-1,-1,-1,-1,-1,-1,-1,-1,-1,-1],"split_conditions":[9.623409E-4,1.2E-4,4.27E-1,2.5E-3,1.042E1,8.1E-3,-1.03E0,1.8E-3,-4.4227E1,3.57E-1,-1.104E0,6.1E-3,1E-5,-1.29E-1,4.29E0,1.1305308E-3,5E-4,1.3646501E-1,6.9695875E-2,1.3E-3,2.6E-3,1.5E-3,-1.293342E-1,1.2E-3,1.7777778E-4,3E-3,7.1E-3,-1.7203027E-1,-2.3255872E-2,1.5899615E-1,-1.1849914E-1,-1.6757427E-1,-7.711579E-2,1.20758235E-1,-6.954444E-2,-1.618566E-1,-5.198414E-2,1.4835502E-1,-1.2079822E-1,4.9449574E-2,1.7498104E-1,4.695521E-2,1.6658013E-1,4.914559E-2,1.5022427E-1,1.607705E-1,-1.2352015E-1,-1.6586976E-1,-1.4105401E-2,8.5442886E-2,-1.7259993E-1],"split_indices":[65,31,180,167,27,167,179,103,58,59,59,169,39,59,27,74,38,0,81,167,5,193,0,163,128,163,169,0,0,0,0,0,0,0,0,0,0,0,0,0,0,0,0,0,0,0,0,0,0,0,0],"split_type":[0,0,0,0,0,0,0,0,0,0,0,0,0,0,0,0,0,0,0,0,0,0,0,0,0,0,0,0,0,0,0,0,0,0,0,0,0,0,0,0,0,0,0,0,0,0,0,0,0,0,0],"sum_hessian":[6.244356E3,2.6520994E3,3.5922568E3,2.4470847E3,2.0501465E2,3.3910598E3,2.0119714E2,2.9140442E2,2.1556802E3,7.2693985E1,1.3232066E2,3.1286719E3,2.6238788E2,1.904273E2,1.0769841E1,1.6928381E2,1.2212061E2,6.2452135E0,2.149435E3,4.948709E1,2.3206892E1,1.2984718E2,2.4734852E0,3.0017139E3,1.2695794E2,1.5976364E2,1.0262422E2,1.8926913E2,1.1581767E0,9.0318165E0,1.7380244E0,1.4661693E2,2.2666891E1,5.5891567E1,6.622904E1,2.1216365E3,2.7798601E1,9.437619E0,4.004947E1,1.0999048E0,2.2106989E1,1.0895782E0,1.287576E2,4.262389E2,2.575475E3,1.447018E1,1.12487755E2,1.3597272E2,2.379093E1,8.491181E1,1.7712408E1],"tree_param":{"num_deleted":"0","num_feature":"210","num_nodes":"51","size_leaf_vector":"1"}},{"base_weights":[1.1312947E-2,9.802048E-1,-1.1150705E0,1.0863789E0,-1.6031606E-1,-1.4539771E0,4.8443773E-1,-3.6770698E-1,1.2361434E0,8.6522484E-1,-1.4982095E0,9.6064603E-1,-1.3190893E0,1.3908856E0,-1.5309943E0,1.3231564E0,-4.844599E-1,-1.7843816E-1,1.381795E0,1.6319026E-1,-1.5064069E0,1.2227201E0,-1.3893687E0,1.5388897E-1,-1.4536574E0,1.666555E-1,-8.8249795E-2,-1.6958642E-1,1.142615E-1,-1.1430049E-1,1.3696834E-1,-1.2517053E-1,5.8206625E-2,1.579214E-1,-1.4460646E-1,-1.5629928E-1,-1.1666949E-1,-8.0572516E-2,1.3897857E-1,1.1923031E-1,-1.6248904E-1,1.6544701E-1,-1.584721E-1],"categories":[],"categories_nodes":[],"categories_segments":[],"categories_sizes":[],"default_left":[0,0,0,0,0,0,0,0,0,0,0,0,0,0,0,0,0,0,0,0,0,0,0,0,0,0,0,0,0,0,0,0,0,0,0,0,0,0,0,0,0,0,0],"id":3,"left_children":[1,3,5,7,-1,9,11,13,15,17,19,21,23,25,27,29,31,-1,33,-1,35,37,39,-1,41,-1,-1,-1,-1,-1,-1,-1,-1,-1,-1,-1,-1,-1,-1,-1,-1,-1,-1],"loss_changes":[6.6372427E3,8.984983E2,1.5252053E3,6.8445996E2,0E0,2.3937744E2,4.2420468E2,6.0371564E2,4.2701123E2,6.27836E1,6.090381E1,2.4198785E2,4.1960342E1,7.5171295E1,8.0164276E1,3.126411E2,1.1350501E2,0E0,2.3186981E1,0E0,4.185791E1,1.2025214E2,2.6023674E1,0E0,4.3014435E1,0E0,0E0,0E0,0E0,0E0,0E0,0E0,0E0,0E0,0E0,0E0,0E0,0E0,0E0,0E0,0E0,0E0,0E0],"parents":[2147483647,0,0,1,1,2,2,3,3,5,5,6,6,7,7,8,8,9,9,10,10,11,11,12,12,13,13,14,14,15,15,16,16,18,18,20,20,21,21,22,22,24,24],"right_children":[2,4,6,8,-1,10,12,14,16,18,20,22,24,26,28,30,32,-1,34,-1,36,38,40,-1,42,-1,-1,-1,-1,-1,-1,-1,-1,-1,-1,-1,-1,-1,-1,-1,-1,-1,-1],"split_conditions":[2.1E-3,4.86E-1,8E-4,3.5846897E-4,-1.6031606E-1,-4.6959E1,1.05E-2,-2.77E0,9.1E-3,1E-4,1.3E-3,8.76E-2,6E-5,1.6E-3,7.6E-3,3E-4,1E-5,-1.7843816E-1,2.736E-2,1.6319026E-1,1.4399268E-2,2.3333333E-1,1.71E-2,1.5388897E-1,2E-4,1.666555E-1,-8.8249795E-2,-1.6958642E-1,1.142615E-1,-1.1430049E-1,1.3696834E-1,-1.2517053E-1,5.8206625E-2,1.579214E-1,-1.4460646E-1,-1.5629928E-1,-1.1666949E-1,-8.0572516E-2,1.3897857E-1,1.1923031E-1,-1.6248904E-1,1.6544701E-1,-1.584721E-1],"split_indices":[169,180,203,73,0,57,169,27,167,53,167,185,41,169,201,164,39,0,38,0,82,148,104,0,156,0,0,0,0,0,0,0,0,0,0,0,0,0,0,0,0,0,0],"split_type":[0,0,0,0,0,0,0,0,0,0,0,0,0,0,0,0,0,0,0,0,0,0,0,0,0,0,0,0,0,0,0,0,0,0,0,0,0,0,0,0,0,0,0],"sum_hessian":[6.0797144E3,3.268418E3,2.8112964E3,3.1399485E3,1.2846964E2,2.3198528E3,4.9144363E2,2.9306653E2,2.8468818E3,4.3069275E1,2.2767834E3,3.8915692E2,1.0228673E2,1.1660061E2,1.7646593E2,2.7100618E3,1.3682013E2,6.6264443E0,3.644283E1,5.4297075E0,2.2713538E3,3.5054388E2,3.861303E1,4.130331E0,9.81564E1,1.04228806E2,1.2371802E1,1.6656056E2,9.905369E0,4.97453E1,2.6603164E3,7.947395E1,5.7346176E1,3.4477436E1,1.9653934E0,1.9439487E3,3.27405E2,2.6383442E1,3.2416043E2,2.8884883E0,3.572454E1,3.5012815E0,9.465512E1],"tree_param":{"num_deleted":"0","num_feature":"210","num_nodes":"43","size_leaf_vector":"1"}},{"base_weights":[-6.5264595E-4,-1.1317703E0,8.30472E-1,-1.3131052E0,9.440743E-1,9.3370724E-1,-1.510921E-1,-7.139838E-1,-1.3969244E0,2.2410594E-2,1.4394791E0,1.1030061E0,-6.03375E-1,-1.3655386E0,1.7004907E-1,1.1516501E0,-1.4063904E0,-7.2569585E-1,1.4102517E0,1.4897507E0,-1.20885074E-1,1.2228132E0,-1.7811115E-1,-1.3186691E0,3.166415E-1,-1.4490144E-1,2.283356E-2,1.0374152E-1,-5.1760573E-2,-2.1468746E-3,1.3423301E-1,-1.4241257E-1,-2.4089798E-2,7.054936E-2,-1.4213991E-1,-7.290857E-2,1.5469225E-1,3.8107593E-2,1.4956447E-1,7.336973E-2,1.4219595E-1,6.6688724E-2,-1.0082612E-1,1.266585E-1,-1.4430402E-1,8.103715E-2,-1.4888342E-1],"categories":[],"categories_nodes":[],"categories_segments":[],"categories_sizes":[],"default_left":[0,0,0,0,0,0,0,0,0,0,0,0,0,0,0,0,0,0,0,0,0,0,0,0,0,0,0,0,0,0,0,0,0,0,0,0,0,0,0,0,0,0,0,0,0,0,0],"id":4,"left_children":[1,3,5,7,9,11,-1,13,15,17,19,21,23,25,27,29,31,33,35,37,-1,39,41,43,45,-1,-1,-1,-1,-1,-1,-1,-1,-1,-1,-1,-1,-1,-1,-1,-1,-1,-1,-1,-1,-1,-1],"loss_changes":[5.5201357E3,9.374331E2,8.19562E2,1.138855E2,9.146333E1,8.444402E2,0E0,1.6313545E2,5.001123E1,7.48125E1,1.9150574E1,4.4857104E2,2.1254915E2,2.2008606E1,7.264208E1,1.8121862E0,4.097461E1,4.763916E1,8.505253E0,2.6864624E-1,0E0,2.5916895E2,1.765231E2,6.0200073E1,1.276124E2,0E0,0E0,0E0,0E0,0E0,0E0,0E0,0E0,0E0,0E0,0E0,0E0,0E0,0E0,0E0,0E0,0E0,0E0,0E0,0E0,0E0,0E0],"parents":[2147483647,0,0,1,1,2,2,3,3,4,4,5,5,7,7,8,8,9,9,10,10,11,11,12,12,13,13,14,14,15,15,16,16,17,17,18,18,19,19,21,21,22,22,23,23,24,24],"right_children":[2,4,6,8,10,12,-1,14,16,18,20,22,24,26,28,30,32,34,36,38,-1,40,42,44,46,-1,-1,-1,-1,-1,-1,-1,-1,-1,-1,-1,-1,-1,-1,-1,-1,-1,-1,-1,-1,-1,-1],"split_conditions":[9.846827E-4,1.2E-4,3.5723E-1,2.5E-3,1.042E1,7.4E-3,-1.510921E-1,5.2735186E-4,-4.4227E1,-2E-2,1.31E-1,2.4021657E-3,2.6E-3,4.2222222E-4,9E-4,3E-4,6.9695875E-2,3E-3,9.53E-3,8E-4,-1.20885074E-1,2.2842067E-3,9E-5,-1.176E1,1.55E-2,-1.4490144E-1,2.283356E-2,1.0374152E-1,-5.1760573E-2,-2.1468746E-3,1.3423301E-1,-1.4241257E-1,-2.4089798E-2,7.054936E-2,-1.4213991E-1,-7.290857E-2,1.5469225E-1,3.8107593E-2,1.4956447E-1,7.336973E-2,1.4219595E-1,6.6688724E-2,-1.0082612E-1,1.266585E-1,-1.4430402E-1,8.103715E-2,-1.4888342E-1],"split_indices":[65,31,30,167,27,167,0,73,58,29,59,68,163,130,188,12,81,168,52,141,0,65,41,207,167,0,0,0,0,0,0,0,0,0,0,0,0,0,0,0,0,0,0,0,0,0,0],"split_type":[0,0,0,0,0,0,0,0,0,0,0,0,0,0,0,0,0,0,0,0,0,0,0,0,0,0,0,0,0,0,0,0,0,0,0,0,0,0,0,0,0,0,0,0,0,0,0],"sum_hessian":[5.869862E3,2.4860774E3,3.3837847E3,2.2866914E3,1.9938599E2,3.241465E3,1.4231949E2,2.8182016E2,2.0048713E3,7.0070435E1,1.2931555E2,2.920117E3,3.213481E2,1.6192938E2,1.1989077E2,6.9724917E0,1.9978988E3,4.5838566E1,2.4231867E1,1.27335884E2,1.979665E0,2.6704302E3,2.4968689E2,1.8054486E2,1.4080325E2,1.5395709E2,7.97229E0,5.2792667E1,6.709811E1,1.0989349E0,5.873557E0,1.967734E3,3.0164814E1,1.49891205E1,3.0849445E1,1.1947982E0,2.3037067E1,1.0205573E0,1.2631533E2,7.74035E2,1.8963951E3,1.23834305E2,1.25852585E2,7.8654304E0,1.7267943E2,1.1100005E2,2.9803196E1],"tree_param":{"num_deleted":"0","num_feature":"210","num_nodes":"47","size_leaf_vector":"1"}},{"base_weights":[6.158657E-3,8.5976076E-1,-9.932701E-1,-1.1955309E0,9.6994597E-1,-1.2939324E0,3.7817892E-1,-1.3333294E0,1.0147902E0,-3.290438E-2,1.1344322E0,8.43902E-1,-1.3442894E0,8.143588E-1,-1.173947E0,-3.1725425E-1,-1.5582771E0,1.2875755E-1,-5.6976248E-2,-1.1277678E0,1.1456848E0,1.2066875E0,-1.4328033E-1,-1.4063907E0,1.2910897E0,-1.416864E0,-1.055547E0,1.0434855E0,-1.3889316E0,1.5614109E-1,-1.2923753E0,1.1122733E-1,-1.5506804E-1,-1.5925148E-1,-5.6382794E-2,-1.5059952E-1,8.106513E-2,-1.1153331E-1,1.3099255E-1,1.2613885E-1,-8.358337E-3,-1.1848236E-2,-1.5699957E-1,1.4344208E-1,-1.289015E-1,-1.449576E-1,-9.8550744E-2,-1.9197032E-2,-1.325482E-1,-9.3909785E-2,1.2165286E-1,5.209141E-2,-1.470842E-1,1.2912159E-1,-1.4212376E-1],"categories":[],"categories_nodes":[],"categories_segments":[],"categories_sizes":[],"default_left":[0,0,0,0,0,0,0,0,0,0,0,0,0,0,0,0,0,0,0,0,0,0,0,0,0,0,0,0,0,0,0,0,0,0,0,0,0,0,0,0,0,0,0,0,0,0,0,0,0,0,0,0,0,0,0],"id":5,"left_children":[1,3,5,7,9,11,13,15,17,19,21,23,25,27,29,31,33,-1,-1,35,37,39,-1,41,43,45,47,49,51,-1,53,-1,-1,-1,-1,-1,-1,-1,-1,-1,-1,-1,-1,-1,-1,-1,-1,-1,-1,-1,-1,-1,-1,-1,-1],"loss_changes":[4.815248E3,6.9056836E2,1.0726086E3,4.866858E1,4.7674097E2,2.3073853E2,3.1799243E2,3.3027496E1,4.919593E0,5.2800494E2,4.6226416E2,5.1825092E1,4.2177246E1,1.8629477E2,3.542952E1,5.08123E1,3.1817627E0,0E0,0E0,1.5673206E2,7.464307E1,1.705752E2,0E0,1.6507759E0,1.7373169E1,2.2030762E1,9.824182E1,1.1512213E2,6.2288437E0,0E0,3.4930405E1,0E0,0E0,0E0,0E0,0E0,0E0,0E0,0E0,0E0,0E0,0E0,0E0,0E0,0E0,0E0,0E0,0E0,0E0,0E0,0E0,0E0,0E0,0E0,0E0],"parents":[2147483647,0,0,1,1,2,2,3,3,4,4,5,5,6,6,7,7,8,8,9,9,10,10,11,11,12,12,13,13,14,14,15,15,16,16,19,19,20,20,21,21,23,23,24,24,25,25,26,26,27,27,28,28,30,30],"right_children":[2,4,6,8,10,12,14,16,18,20,22,24,26,28,30,32,34,-1,-1,36,38,40,-1,42,44,46,48,50,52,-1,54,-1,-1,-1,-1,-1,-1,-1,-1,-1,-1,-1,-1,-1,-1,-1,-1,-1,-1,-1,-1,-1,-1,-1,-1],"split_conditions":[2.1E-3,4E-4,8E-4,4E-2,5.3712196E-4,-4.191E1,1.05E-2,-2.3844E1,7.6E-3,2E-4,3.5723E-1,1E-4,3.9E-3,1.6833333E-2,2E-4,8.324091E-3,1.8E-1,1.2875755E-1,-5.6976248E-2,3.2338987E-3,3.111111E-4,9.1E-3,-1.4328033E-1,1E-4,1.51E-2,1.6340027E-2,7.2E-3,2.3111111E-1,1.9E-3,1.5614109E-1,3.88E-3,1.1122733E-1,-1.5506804E-1,-1.5925148E-1,-5.6382794E-2,-1.5059952E-1,8.106513E-2,-1.1153331E-1,1.3099255E-1,1.2613885E-1,-8.358337E-3,-1.1848236E-2,-1.5699957E-1,1.4344208E-1,-1.289015E-1,-1.449576E-1,-9.8550744E-2,-1.9197032E-2,-1.325482E-1,-9.3909785E-2,1.2165286E-1,5.209141E-2,-1.470842E-1,1.2912159E-1,-1.4212376E-1],"split_indices":[169,170,203,29,73,208,169,57,37,190,30,53,163,125,156,74,209,0,0,65,125,167,0,15,142,82,169,148,22,0,52,0,0,0,0,0,0,0,0,0,0,0,0,0,0,0,0,0,0,0,0,0,0,0,0],"split_type":[0,0,0,0,0,0,0,0,0,0,0,0,0,0,0,0,0,0,0,0,0,0,0,0,0,0,0,0,0,0,0,0,0,0,0,0,0,0,0,0,0,0,0,0,0,0,0,0,0,0,0,0,0,0,0],"sum_hessian":[5.642315E3,3.0432476E3,2.5990674E3,1.5434732E2,2.8889001E3,2.1317756E3,4.6729184E2,1.45663E2,8.684328E0,4.071798E2,2.4817205E3,4.869608E1,2.0830796E3,3.6515186E2,1.02139984E2,2.6839756E1,1.18823235E2,7.568764E0,1.1155643E0,2.1110997E2,1.9606982E2,2.4142996E3,6.742086E1,7.717232E0,4.0978848E1,1.6615472E3,4.2153235E2,3.3123242E2,3.3919453E1,3.733038E0,9.8406944E1,1.2477125E1,1.436263E1,1.1428707E2,4.53617E0,1.7682976E2,3.428022E1,1.288586E1,1.8318396E2,2.3161296E3,9.816991E1,1.0641763E0,6.6530557E0,3.9242855E1,1.7359927E0,1.5422313E3,1.1931585E2,1.00791374E2,3.2074097E2,2.6234324E1,3.0499808E2,1.1745158E0,3.2744934E1,4.2465544E0,9.416039E1],"tree_param":{"num_deleted":"0","num_feature":"210","num_nodes":"55","size_leaf_vector":"1"}},{"base_weights":[-7.7902284E-3,7.976045E-1,-9.539241E-1,-1.1524167E0,9.019548E-1,-1.2321678E0,3.3518448E-1,-1.267644E0,9.8793435E-1,1.2662878E0,4.792743E-1,7.585944E-1,-1.2781124E0,7.501383E-1,-1.108238E0,-3.3816403E-1,-1.4792944E0,1.2077805E-1,-2.6673315E-2,1.2961901E0,-1.2821762E-1,9.442109E-1,-4.5937E-1,-1.3710735E0,1.2148309E0,1.4653225E-1,-1.2855332E0,9.686036E-1,-1.301976E0,1.3977861E-1,-1.2451041E0,1.09706596E-1,-1.476342E-1,-1.5138595E-1,-6.8376645E-2,1.3044722E-1,-1.617685E-1,-1.0725373E-2,1.05810635E-1,-1.1388421E-1,4.8856024E-2,-3.707644E-2,-1.4541332E-1,1.3802032E-1,-1.2568279E-1,-9.740352E-2,-1.3495539E-1,-5.1401686E-2,1.2071299E-1,7.873423E-2,-1.4003322E-1,1.4080785E-1,-1.3556172E-1],"categories":[],"categories_nodes":[],"categories_segments":[],"categories_sizes":[],"default_left":[0,0,0,0,0,0,0,0,0,0,0,0,0,0,0,0,0,0,0,0,0,0,0,0,0,0,0,0,0,0,0,0,0,0,0,0,0,0,0,0,0,0,0,0,0,0,0,0,0,0,0,0,0],"id":6,"left_children":[1,3,5,7,9,11,13,15,17,19,21,23,25,27,29,31,33,-1,-1,35,-1,37,39,41,43,-1,45,47,49,-1,51,-1,-1,-1,-1,-1,-1,-1,-1,-1,-1,-1,-1,-1,-1,-1,-1,-1,-1,-1,-1,-1,-1],"loss_changes":[4.118507E3,5.9512354E2,8.9183716E2,3.7934402E1,4.2624146E2,1.8794751E2,2.655561E2,2.7351059E1,2.5730152E0,1.15058105E2,5.611178E2,4.7082237E1,4.25708E1,1.5543073E2,3.5728065E1,4.663175E1,2.1276093E0,0E0,0E0,3.7616455E1,0E0,1.0304614E2,2.751015E2,1.8508911E-1,1.768631E1,0E0,3.8443604E1,1.1073544E2,7.989544E0,0E0,2.9614243E1,0E0,0E0,0E0,0E0,0E0,0E0,0E0,0E0,0E0,0E0,0E0,0E0,0E0,0E0,0E0,0E0,0E0,0E0,0E0,0E0,0E0,0E0],"parents":[2147483647,0,0,1,1,2,2,3,3,4,4,5,5,6,6,7,7,8,8,9,9,10,10,11,11,12,12,13,13,14,14,15,15,16,16,19,19,21,21,22,22,23,23,24,24,26,26,27,27,28,28,30,30],"right_children":[2,4,6,8,10,12,14,16,18,20,22,24,26,28,30,32,34,-1,-1,36,-1,38,40,42,44,-1,46,48,50,-1,52,-1,-1,-1,-1,-1,-1,-1,-1,-1,-1,-1,-1,-1,-1,-1,-1,-1,-1,-1,-1,-1,-1],"split_conditions":[2.1E-3,4E-4,8E-4,4E-2,6E-4,-4.191E1,1.05E-2,-2.5021E1,9.8E-3,3.5723E-1,2.45E-2,1E-4,1.3E-3,1.6833333E-2,8E-5,2.65E-2,1.8E-1,1.2077805E-1,-2.6673315E-2,1.199E-1,-1.2821762E-1,1E-5,9.6E-3,5.6E-3,2.4088172E-3,1.4653225E-1,5E-5,1.9E-3,1.59E-2,1.3977861E-1,2E-4,1.09706596E-1,-1.476342E-1,-1.5138595E-1,-6.8376645E-2,1.3044722E-1,-1.617685E-1,-1.0725373E-2,1.05810635E-1,-1.1388421E-1,4.8856024E-2,-3.707644E-2,-1.4541332E-1,1.3802032E-1,-1.2568279E-1,-9.740352E-2,-1.3495539E-1,-5.1401686E-2,1.2071299E-1,7.873423E-2,-1.4003322E-1,1.4080785E-1,-1.3556172E-1],"split_indices":[169,170,203,29,169,208,169,57,7,30,0,53,167,125,41,104,209,0,0,196,0,39,201,50,78,0,41,163,104,0,156,0,0,0,0,0,0,0,0,0,0,0,0,0,0,0,0,0,0,0,0,0,0],"split_type":[0,0,0,0,0,0,0,0,0,0,0,0,0,0,0,0,0,0,0,0,0,0,0,0,0,0,0,0,0,0,0,0,0,0,0,0,0,0,0,0,0,0,0,0,0,0,0,0,0,0,0,0,0],"sum_hessian":[5.402787E3,2.9185413E3,2.4842458E3,1.4773502E2,2.7708062E3,2.0432672E3,4.4097867E2,1.4057481E2,7.160206E0,1.487042E3,1.2837642E3,4.574261E1,1.9975245E3,3.428863E2,9.8092354E1,2.6554829E1,1.1401998E2,6.1244364E0,1.0357697E0,1.4702819E3,1.6760105E1,8.5851294E2,4.2525128E2,7.716685E0,3.8025925E1,4.8586173E0,1.9926659E3,3.1037247E2,3.2513836E1,4.6027656E0,9.3489586E1,1.1760759E1,1.479407E1,1.0840684E2,5.6131506E0,1.4666655E3,3.616344E0,8.391169E1,7.7460126E2,2.4758328E2,1.7766798E2,1.0105245E0,6.7061605E0,3.6055153E1,1.9707708E0,3.4248587E2,1.65018E3,4.2853104E1,2.6751938E2,1.1468571E0,3.1366978E1,3.2689052E0,9.022069E1],"tree_param":{"num_deleted":"0","num_feature":"210","num_nodes":"53","size_leaf_vector":"1"}},{"base_weights":[-2.8890712E-4,6.8910855E-1,-9.981488E-1,-3.482889E-1,8.7146693E-1,-1.2055058E0,2.4268113E-1,-1.142638E0,6.186233E-1,9.5545E-1,-1.3530964E-1,6.592575E-1,-1.2456993E0,7.0776016E-1,-1.1360565E0,-1.4754351E0,4.1233152E-1,-1.3041968E0,9.6639776E-1,3.9340666E-1,1.187703E0,-1.2537148E0,1.3171479E0,1.3729267E-1,-1.2537813E0,-9.7502214E-1,9.274274E-1,-1.308499E0,5.7579017E-1,1.12988226E-1,-1.5166119E-1,-1.3665043E-1,1.0950619E-1,-5.9333845E-4,-1.3506876E-1,1.2829259E-1,-5.8722194E-2,7.342876E-3,1.3497373E-1,-7.210814E-2,1.2554936E-1,2.1336576E-2,-1.4430949E-1,1.3663948E-1,-3.0916731E-3,-1.3075453E-1,-9.5943406E-2,1.2484812E-1,-1.6506177E-1,1.1252971E-1,-1.2605676E-1,-1.3356963E-1,8.388345E-3,-8.250521E-2,1.343808E-1],"categories":[],"categories_nodes":[],"categories_segments":[],"categories_sizes":[],"default_left":[0,0,0,0,0,0,0,0,0,0,0,0,0,0,0,0,0,0,0,0,0,0,0,0,0,0,0,0,0,0,0,0,0,0,0,0,0,0,0,0,0,0,0,0,0,0,0,0,0,0,0,0,0,0,0],"id":7,"left_children":[1,3,5,7,9,11,13,15,17,19,-1,21,23,25,27,29,31,33,35,37,39,41,43,-1,45,47,49,51,53,-1,-1,-1,-1,-1,-1,-1,-1,-1,-1,-1,-1,-1,-1,-1,-1,-1,-1,-1,-1,-1,-1,-1,-1,-1,-1],"loss_changes":[3.5451016E3,5.768689E2,5.420552E2,3.5122412E2,4.8561487E2,1.3605444E2,1.9465938E2,1.3044104E2,1.3933112E2,3.256975E2,0E0,5.0385513E1,3.9108887E1,8.4697426E1,2.3377373E1,2.3907196E1,5.6161022E1,1.926445E0,8.702052E1,2.239281E2,2.2962207E2,3.203434E0,1.9875145E0,0E0,2.6624023E1,4.2111137E1,8.844762E1,2.7603073E0,9.401816E0,0E0,0E0,0E0,0E0,0E0,0E0,0E0,0E0,0E0,0E0,0E0,0E0,0E0,0E0,0E0,0E0,0E0,0E0,0E0,0E0,0E0,0E0,0E0,0E0,0E0,0E0],"parents":[2147483647,0,0,1,1,2,2,3,3,4,4,5,5,6,6,7,7,8,8,9,9,11,11,12,12,13,13,14,14,15,15,16,16,17,17,18,18,19,19,20,20,21,21,22,22,24,24,25,25,26,26,27,27,28,28],"right_children":[2,4,6,8,10,12,14,16,18,20,-1,22,24,26,28,30,32,34,36,38,40,42,44,-1,46,48,50,52,54,-1,-1,-1,-1,-1,-1,-1,-1,-1,-1,-1,-1,-1,-1,-1,-1,-1,-1,-1,-1,-1,-1,-1,-1,-1,-1],"split_conditions":[2.8E-3,1E-5,7E-4,1.07E-2,4.86E-1,-4.191E1,1.21E-2,2.6E-3,4E-4,5.7E-3,-1.3530964E-1,1.39E-3,1.3E-3,1.8E-3,3.591E-2,-3.6E-1,-3.748E0,1.6E-1,4.02E0,1.183E1,5E-4,6.666667E-5,5.2383204E-4,1.3729267E-1,1.4399268E-2,1.5E-4,1.1022222E-2,4E-3,6E-3,1.12988226E-1,-1.5166119E-1,-1.3665043E-1,1.0950619E-1,-5.9333845E-4,-1.3506876E-1,1.2829259E-1,-5.8722194E-2,7.342876E-3,1.3497373E-1,-7.210814E-2,1.2554936E-1,2.1336576E-2,-1.4430949E-1,1.3663948E-1,-3.0916731E-3,-1.3075453E-1,-9.5943406E-2,1.2484812E-1,-1.6506177E-1,1.1252971E-1,-1.2605676E-1,-1.3356963E-1,8.388345E-3,-8.250521E-2,1.343808E-1],"split_indices":[169,39,113,95,180,208,169,163,170,95,0,37,167,163,46,207,59,87,208,178,164,132,71,0,82,38,146,168,203,0,0,0,0,0,0,0,0,0,0,0,0,0,0,0,0,0,0,0,0,0,0,0,0,0,0],"split_type":[0,0,0,0,0,0,0,0,0,0,0,0,0,0,0,0,0,0,0,0,0,0,0,0,0,0,0,0,0,0,0,0,0,0,0,0,0,0,0,0,0,0,0,0,0,0,0,0,0,0,0,0,0,0,0],"sum_hessian":[5.1513477E3,3.0467385E3,2.1046091E3,4.5536356E2,2.591375E3,1.8032874E3,3.0132175E2,2.4988959E2,2.0547397E2,2.4976526E3,9.372238E1,3.772322E1,1.7655641E3,2.2568112E2,7.5640625E1,2.0587833E2,4.401126E1,3.1050093E1,1.7442387E2,7.311038E2,1.7665488E3,9.42171E0,2.8301512E1,4.912847E0,1.7606512E3,2.5661337E1,2.0001978E2,6.893236E1,6.7082653E0,2.7918808E0,2.0308644E2,1.1929012E1,3.208225E1,1.1124474E0,2.9937647E1,1.4504686E2,2.937701E1,5.486187E2,1.8248509E2,6.0256844E1,1.706292E3,1.0626866E0,8.359023E0,2.7290934E1,1.0105778E0,1.4858171E3,2.748341E2,5.782418E0,1.987892E1,1.8387672E2,1.6143059E1,6.7651634E1,1.28072E0,2.3491755E0,4.35909E0],"tree_param":{"num_deleted":"0","num_feature":"210","num_nodes":"55","size_leaf_vector":"1"}},{"base_weights":[1.3178278E-3,-9.422706E-1,6.881221E-1,-1.1193694E0,5.384158E-1,7.950774E-1,-8.386981E-1,-1.2341394E0,-8.261459E-1,-2.809526E-1,1.1923646E0,-2.3464563E-1,9.756549E-1,1.0205506E0,-1.0632242E0,-1.2468361E0,-3.5477835E-1,5.3258884E-1,-1.0323614E0,6.235821E-1,-9.990853E-1,1.3220989E0,-4.6874762E-1,7.2806066E-1,-1.0265707E0,1.0351408E0,-5.027359E-1,1.2812798E-1,-1.15175284E-1,-1.2676078E0,9.1354245E-1,-1.2493717E-1,7.4553214E-2,-9.180853E-2,2.0754667E-1,-9.497731E-2,1.10051684E-1,-1.251189E-1,-3.6441367E-2,1.0727712E-1,-1.300075E-1,1.2560464E-1,-1.348189E-1,1.784277E-2,1.3389622E-1,-1.094468E-1,9.977087E-2,1.2142563E-1,-3.1855147E-2,-1.3658981E-1,1.4774271E-3,1.0812237E-1,-1.9528894E-2,-1.2769854E-1,7.632069E-2,-1.3297895E-1,1.062203E-1,-6.8761066E-2,1.2684198E-1],"categories":[],"categories_nodes":[],"categories_segments":[],"categories_sizes":[],"default_left":[0,0,0,0,0,0,0,0,0,0,0,0,0,0,0,0,0,0,0,0,0,0,0,0,0,0,0,0,0,0,0,0,0,0,0,0,0,0,0,0,0,0,0,0,0,0,0,0,0,0,0,0,0,0,0,0,0,0,0],"id":8,"left_children":[1,3,5,7,9,11,13,15,17,19,21,23,25,27,29,31,33,35,37,39,41,43,45,47,49,51,53,-1,-1,55,57,-1,-1,-1,-1,-1,-1,-1,-1,-1,-1,-1,-1,-1,-1,-1,-1,-1,-1,-1,-1,-1,-1,-1,-1,-1,-1,-1,-1],"loss_changes":[3.1761145E3,5.4198E2,4.6385876E2,6.1047607E1,1.1887347E2,4.9321484E2,7.8803116E1,1.4334106E1,1.467638E2,6.493303E1,2.7174698E1,3.029393E2,1.9890918E2,1.3126417E1,6.846872E1,7.5203857E0,2.9606026E1,5.9490303E1,6.581726E1,3.9786705E1,4.5444016E1,1.970459E0,9.96039E0,9.171774E1,7.701367E1,1.2319458E2,8.716109E1,0E0,0E0,2.334758E1,1.0073029E1,0E0,0E0,0E0,0E0,0E0,0E0,0E0,0E0,0E0,0E0,0E0,0E0,0E0,0E0,0E0,0E0,0E0,0E0,0E0,0E0,0E0,0E0,0E0,0E0,0E0,0E0,0E0,0E0],"parents":[2147483647,0,0,1,1,2,2,3,3,4,4,5,5,6,6,7,7,8,8,9,9,10,10,11,11,12,12,13,13,14,14,15,15,16,16,17,17,18,18,19,19,20,20,21,21,22,22,23,23,24,24,25,25,26,26,29,29,30,30],"right_children":[2,4,6,8,10,12,14,16,18,20,22,24,26,28,30,32,34,36,38,40,42,44,46,48,50,52,54,-1,-1,56,58,-1,-1,-1,-1,-1,-1,-1,-1,-1,-1,-1,-1,-1,-1,-1,-1,-1,-1,-1,-1,-1,-1,-1,-1,-1,-1,-1,-1],"split_conditions":[1.0316976E-3,2E-4,1.651111E-2,2.9137605E-4,1.115E1,1E-5,-4.696E1,6.9695875E-2,2.2222222E-4,6E-4,1.0366666E0,8E-4,6.1E-3,1.2E-4,1.746E-1,4.316E1,5.174E-2,1.9E-3,2.9E-3,1.1874342E-4,-3.9815E1,1.9E-4,3.3994E1,1.97E0,2.6E-3,1.4466667E0,5.1E-4,1.2812798E-1,-1.15175284E-1,-3.34E-1,-1.806E1,-1.2493717E-1,7.4553214E-2,-9.180853E-2,2.0754667E-1,-9.497731E-2,1.10051684E-1,-1.251189E-1,-3.6441367E-2,1.0727712E-1,-1.300075E-1,1.2560464E-1,-1.348189E-1,1.784277E-2,1.3389622E-1,-1.094468E-1,9.977087E-2,1.2142563E-1,-3.1855147E-2,-1.3658981E-1,1.4774271E-3,1.0812237E-1,-1.9528894E-2,-1.2769854E-1,7.632069E-2,-1.3297895E-1,1.062203E-1,-6.8761066E-2,1.2684198E-1],"split_indices":[65,181,134,65,178,39,207,81,128,169,147,169,169,41,202,177,43,43,163,72,57,39,57,177,163,147,53,0,0,59,179,0,0,0,0,0,0,0,0,0,0,0,0,0,0,0,0,0,0,0,0,0,0,0,0,0,0,0,0],"split_type":[0,0,0,0,0,0,0,0,0,0,0,0,0,0,0,0,0,0,0,0,0,0,0,0,0,0,0,0,0,0,0,0,0,0,0,0,0,0,0,0,0,0,0,0,0,0,0,0,0,0,0,0,0,0,0,0,0,0,0],"sum_hessian":[4.898953E3,2.0635312E3,2.8354216E3,1.8433052E3,2.2022614E2,2.6502483E3,1.8517336E2,1.3224703E3,5.2083484E2,9.8003075E1,1.2222306E2,3.9537378E2,2.2548745E3,1.9570362E1,1.65603E2,1.3032357E3,1.923455E1,6.8422516E1,4.5241232E2,4.343081E1,5.457226E1,1.1355816E2,8.664898E0,1.7848209E2,2.168917E2,2.167943E3,8.693144E1,1.7839378E1,1.7309837E0,1.5041039E2,1.5192612E1,1.3019517E3,1.2840499E0,1.6120258E1,3.1142924E0,1.8766718E1,4.9655796E1,3.4011383E2,1.1229849E2,3.5567783E1,7.863028E0,6.967278E0,4.7604984E1,1.8183463E0,1.11739815E2,6.2512317E0,2.4136658E0,1.2175948E2,5.6722607E1,1.6335123E2,5.354047E1,2.0897957E3,7.814738E1,5.39357E1,3.2995747E1,1.4691843E2,3.4919605E0,2.5862484E0,1.2606363E1],"tree_param":{"num_deleted":"0","num_feature":"210","num_nodes":"59","size_leaf_vector":"1"}},{"base_weights":[3.425063E-4,6.878871E-1,-8.338632E-1,7.7285594E-1,-1.1419477E0,-1.1178635E0,2.0151635E-1,8.409343E-2,1.0010625E0,-1.3139737E-1,6.621234E-1,4.726868E-1,-1.1428827E0,6.085558E-1,-1.0374634E0,-6.9781125E-1,7.7794313E-1,-5.107176E-1,1.0673138E0,1.16451405E-1,-1.0540425E-1,1.163834E0,-1.0034127E0,-1.21021E0,-7.7803534E-1,7.9616594E-1,-1.1777898E0,1.2138057E-1,-1.1322658E0,3.853179E-2,-1.3031071E-1,-1.3257445E-1,9.154372E-2,-1.04241505E-1,1.3116823E-1,4.384252E-2,1.1624276E-1,1.261074E-1,-2.4886094E-2,7.6960675E-2,-1.3819861E-1,-8.0590315E-2,-1.2512664E-1,-1.111856E-1,-1.3286306E-3,9.225915E-2,-1.3630456E-1,2.461052E-2,-1.330413E-1,1.326723E-1,-1.2246914E-1],"categories":[],"categories_nodes":[],"categories_segments":[],"categories_sizes":[],"default_left":[0,0,0,0,0,0,0,0,0,0,0,0,0,0,0,0,0,0,0,0,0,0,0,0,0,0,0,0,0,0,0,0,0,0,0,0,0,0,0,0,0,0,0,0,0,0,0,0,0,0,0],"id":9,"left_children":[1,3,5,7,9,11,13,15,17,-1,19,21,23,25,27,29,31,33,35,-1,-1,37,39,41,43,45,47,-1,49,-1,-1,-1,-1,-1,-1,-1,-1,-1,-1,-1,-1,-1,-1,-1,-1,-1,-1,-1,-1,-1,-1],"loss_changes":[2.6681655E3,3.9738E2,6.182626E2,3.8305786E2,3.6115036E1,6.618262E1,2.2922202E2,3.3025565E2,1.8391943E2,0E0,1.0324613E1,2.7950954E1,3.8958008E1,1.1549179E2,2.5375748E1,1.8818146E2,9.448723E1,7.650318E1,1.0442651E2,0E0,0E0,2.833702E0,7.043582E0,2.1723877E1,6.529974E1,8.586012E1,7.4750977E0,0E0,2.6268265E1,0E0,0E0,0E0,0E0,0E0,0E0,0E0,0E0,0E0,0E0,0E0,0E0,0E0,0E0,0E0,0E0,0E0,0E0,0E0,0E0,0E0,0E0],"parents":[2147483647,0,0,1,1,2,2,3,3,4,4,5,5,6,6,7,7,8,8,10,10,11,11,12,12,13,13,14,14,15,15,16,16,17,17,18,18,21,21,22,22,23,23,24,24,25,25,26,26,28,28],"right_children":[2,4,6,8,10,12,14,16,18,-1,20,22,24,26,28,30,32,34,36,-1,-1,38,40,42,44,46,48,-1,50,-1,-1,-1,-1,-1,-1,-1,-1,-1,-1,-1,-1,-1,-1,-1,-1,-1,-1,-1,-1,-1,-1],"split_conditions":[2.1E-3,4.27E-1,1.4E-4,1.5839507E-3,-1.52E0,-4.279E1,1.05E-2,1.42E-2,6E-4,-1.3139737E-1,4.29E0,4.19E-2,4.4E-2,2.0980859E0,5E-5,2.7E-3,1E-5,1.277E1,1E-5,1.16451405E-1,-1.0540425E-1,8.5E-3,4E-5,1E-4,7E-4,8.7E-3,9E-5,1.2138057E-1,2E-4,3.853179E-2,-1.3031071E-1,-1.3257445E-1,9.154372E-2,-1.04241505E-1,1.3116823E-1,4.384252E-2,1.1624276E-1,1.261074E-1,-2.4886094E-2,7.6960675E-2,-1.3819861E-1,-8.0590315E-2,-1.2512664E-1,-1.111856E-1,-1.3286306E-3,9.225915E-2,-1.3630456E-1,2.461052E-2,-1.330413E-1,1.326723E-1,-1.2246914E-1],"split_indices":[169,180,83,65,179,208,169,202,164,0,27,112,112,88,41,120,53,177,39,0,0,169,41,192,157,150,62,0,156,0,0,0,0,0,0,0,0,0,0,0,0,0,0,0,0,0,0,0,0,0,0],"split_type":[0,0,0,0,0,0,0,0,0,0,0,0,0,0,0,0,0,0,0,0,0,0,0,0,0,0,0,0,0,0,0,0,0,0,0,0,0,0,0,0,0,0,0,0,0,0,0,0,0,0,0],"sum_hessian":[4.6499897E3,2.5491663E3,2.1008235E3,2.4365996E3,1.1256654E2,1.6485527E3,4.5227087E2,6.0673834E2,1.8298613E3,1.0301526E2,9.551282E0,2.5252787E1,1.6232999E3,3.4081308E2,1.1145779E2,2.8526514E2,3.214732E2,7.654236E1,1.753319E3,7.637054E0,1.9142281E0,1.7343615E1,7.9091725E0,1.3684545E3,2.5484544E2,3.0892288E2,3.1890182E1,4.026931E0,1.07430855E2,1.0239708E2,1.8286804E2,1.9191833E1,3.0228137E2,5.9585796E1,1.6956558E1,2.3107408E2,1.5222449E3,1.6327099E1,1.0165151E0,1.20988E0,6.6992927E0,1.2805498E2,1.2403994E3,1.7709E2,7.775545E1,2.9237646E2,1.6546429E1,3.0280032E0,2.886218E1,3.4079363E0,1.0402292E2],"tree_param":{"num_deleted":"0","num_feature":"210","num_nodes":"51","size_leaf_vector":"1"}},{"base_weights":[4.926961E-3,-7.658365E-1,6.922211E-1,-9.368908E-1,7.8505397E-1,7.829403E-1,-1.0990952E0,-1.1298447E0,-5.353445E-1,5.5357836E-2,1.1859107E0,8.9532113E-1,-5.7172614E-1,-1.256509E-1,4.93839E-1,-1.1408848E0,7.130443E-2,-8.7793684E-1,5.0231004E-1,1.1601992E0,-6.980518E-1,1.2640057E0,-9.406308E-1,9.789242E-1,-4.5413607E-1,7.915378E-1,-8.043065E-1,1.1323124E-1,-1.0625491E-1,5.3583037E-2,-1.1466614E-1,-8.538693E-2,1.23715065E-1,-1.0923084E-1,5.2977274E-3,1.1424836E-1,-6.894419E-2,1.2812476E-1,-8.914272E-2,6.702371E-2,-1.0253514E-1,1.301419E-1,-8.139204E-2,-1.2865405E-1,2.60263E-2,6.311514E-2,1.16386116E-1,-1.2283732E-1,3.3028554E-2,1.3443422E-1,-1.3197412E-1,-1.0197736E-1,2.055536E-2],"categories":[],"categories_nodes":[],"categories_segments":[],"categories_sizes":[],"default_left":[0,0,0,0,0,0,0,0,0,0,0,0,0,0,0,0,0,0,0,0,0,0,0,0,0,0,0,0,0,0,0,0,0,0,0,0,0,0,0,0,0,0,0,0,0,0,0,0,0,0,0,0,0],"id":10,"left_children":[1,3,5,7,9,11,13,15,17,19,21,23,25,-1,27,29,31,33,35,37,39,41,43,45,47,49,51,-1,-1,-1,-1,-1,-1,-1,-1,-1,-1,-1,-1,-1,-1,-1,-1,-1,-1,-1,-1,-1,-1,-1,-1,-1,-1],"loss_changes":[2.3230264E3,5.491061E2,3.7757092E2,1.4367859E2,6.015625E1,3.3649707E2,2.874353E1,1.674878E1,2.1597847E2,6.24479E1,2.3249237E1,2.3040247E2,5.4434074E1,0E0,1.1939545E1,1.26779785E1,1.4418706E1,9.10936E1,1.16087456E2,8.691353E0,2.068363E1,1.1053528E1,2.5276465E0,1.2273279E2,7.303903E1,3.122321E1,3.185598E1,0E0,0E0,0E0,0E0,0E0,0E0,0E0,0E0,0E0,0E0,0E0,0E0,0E0,0E0,0E0,0E0,0E0,0E0,0E0,0E0,0E0,0E0,0E0,0E0,0E0,0E0],"parents":[2147483647,0,0,1,1,2,2,3,3,4,4,5,5,6,6,7,7,8,8,9,9,10,10,11,11,12,12,14,14,15,15,16,16,17,17,18,18,19,19,20,20,21,21,22,22,23,23,24,24,25,25,26,26],"right_children":[2,4,6,8,10,12,14,16,18,20,22,24,26,-1,28,30,32,34,36,38,40,42,44,46,48,50,52,-1,-1,-1,-1,-1,-1,-1,-1,-1,-1,-1,-1,-1,-1,-1,-1,-1,-1,-1,-1,-1,-1,-1,-1,-1,-1],"split_conditions":[1.348184E-3,2E-4,2.8735E-1,1.3E-3,1.193E1,8.7E-3,-2.35E0,8.665921E-2,1.4E-3,1.6666666E-4,2.8617108E0,1.2944444E0,6E-4,-1.256509E-1,3.739E-2,-4.3514E1,1.126E-2,8.09E-3,7.9E-3,5E-4,5E-4,1.05E-2,1.0198039E-4,1.4E-2,4.5E-4,2.3444444E-3,1.326E-2,1.1323124E-1,-1.0625491E-1,5.3583037E-2,-1.1466614E-1,-8.538693E-2,1.23715065E-1,-1.0923084E-1,5.2977274E-3,1.1424836E-1,-6.894419E-2,1.2812476E-1,-8.914272E-2,6.702371E-2,-1.0253514E-1,1.301419E-1,-8.139204E-2,-1.2865405E-1,2.60263E-2,6.311514E-2,1.16386116E-1,-1.2283732E-1,3.3028554E-2,1.3443422E-1,-1.3197412E-1,-1.0197736E-1,2.055536E-2],"split_indices":[65,91,30,95,177,167,179,81,157,139,88,148,169,0,32,58,39,44,90,102,175,169,61,185,53,124,52,0,0,0,0,0,0,0,0,0,0,0,0,0,0,0,0,0,0,0,0,0,0,0,0,0,0],"split_type":[0,0,0,0,0,0,0,0,0,0,0,0,0,0,0,0,0,0,0,0,0,0,0,0,0,0,0,0,0,0,0,0,0,0,0,0,0,0,0,0,0,0,0,0,0,0,0,0,0,0,0,0,0],"sum_hessian":[4.3832095E3,2.0660884E3,2.3171213E3,1.8612041E3,2.0488422E2,2.2059656E3,1.1115574E2,1.2558975E3,6.0530664E2,7.304872E1,1.318355E2,2.0372942E3,1.686714E2,1.01351395E2,9.80434E0,1.244509E3,1.1388479E1,4.5517865E2,1.5012799E2,2.9397978E1,4.365074E1,1.27556725E2,4.278775E0,1.9186993E3,1.1859484E2,2.4232122E1,1.4443929E2,7.145523E0,2.658817E0,3.9578028E0,1.2405513E3,6.498834E0,4.8896446E0,3.6983856E2,8.534008E1,9.769208E1,5.2435917E1,2.8114676E1,1.2833028E0,8.223653E0,3.542709E1,1.2566775E2,1.8889776E0,3.2665482E0,1.0122272E0,6.6763257E2,1.2510668E3,5.940005E1,5.9194794E1,1.9491772E1,4.7403502E0,1.1903233E2,2.5406948E1],"tree_param":{"num_deleted":"0","num_feature":"210","num_nodes":"53","size_leaf_vector":"1"}},{"base_weights":[-3.496399E-3,-8.372869E-1,5.7541084E-1,-9.978627E-1,4.658772E-1,6.652601E-1,-1.1066631E0,-1.1176738E0,-6.81615E-1,-2.4800773E-1,1.088958E0,6.916273E-2,8.980124E-1,-1.239621E-1,6.169177E-1,-1.1346848E0,-1.3336542E-1,6.564379E-1,-8.9005214E-1,4.525895E-1,-9.2929566E-1,1.2066875E0,-1.2998106E-1,1.1134546E0,-4.4575828E-1,9.9339557E-1,7.7833906E-2,1.09564506E-1,-9.6282475E-2,-4.9269643E-2,-1.1482229E-1,-6.850966E-2,2.0461547E-1,1.2157209E-1,-5.96804E-2,-1.13618374E-1,-2.0897793E-2,-1.1540977E-1,8.284732E-2,1.109274E-1,-1.1927339E-1,1.2532552E-1,-6.080624E-2,1.2653929E-1,-9.804582E-2,-9.7359985E-2,4.9968243E-2,1.0625625E-1,-1.4406993E-2,-7.490704E-2,6.731887E-2],"categories":[],"categories_nodes":[],"categories_segments":[],"categories_sizes":[],"default_left":[0,0,0,0,0,0,0,0,0,0,0,0,0,0,0,0,0,0,0,0,0,0,0,0,0,0,0,0,0,0,0,0,0,0,0,0,0,0,0,0,0,0,0,0,0,0,0,0,0,0,0],"id":11,"left_children":[1,3,5,7,9,11,13,15,17,19,21,23,25,-1,27,29,31,33,35,37,39,41,-1,43,45,47,49,-1,-1,-1,-1,-1,-1,-1,-1,-1,-1,-1,-1,-1,-1,-1,-1,-1,-1,-1,-1,-1,-1,-1,-1],"loss_changes":[2.0235687E3,3.59958E2,3.7469165E2,5.7202515E1,8.440344E1,3.2591492E2,2.9603241E1,1.8399658E1,1.18528656E2,4.2883854E1,3.002353E1,3.5585703E2,1.3210596E2,0E0,8.375593E0,8.898926E0,2.5398104E1,4.107955E1,6.1169952E1,2.7850796E1,2.5721237E1,8.954971E0,0E0,7.076495E1,2.2172531E2,1.1923035E2,8.769693E1,0E0,0E0,0E0,0E0,0E0,0E0,0E0,0E0,0E0,0E0,0E0,0E0,0E0,0E0,0E0,0E0,0E0,0E0,0E0,0E0,0E0,0E0,0E0,0E0],"parents":[2147483647,0,0,1,1,2,2,3,3,4,4,5,5,6,6,7,7,8,8,9,9,10,10,11,11,12,12,14,14,15,15,16,16,17,17,18,18,19,19,20,20,21,21,23,23,24,24,25,25,26,26],"right_children":[2,4,6,8,10,12,14,16,18,20,22,24,26,-1,28,30,32,34,36,38,40,42,-1,44,46,48,50,-1,-1,-1,-1,-1,-1,-1,-1,-1,-1,-1,-1,-1,-1,-1,-1,-1,-1,-1,-1,-1,-1,-1,-1],"split_conditions":[1.0084145E-3,2E-4,4.27E-1,3.168596E-4,1.2969E1,1.9E-3,-9.9E-1,6.9695875E-2,2.2222222E-4,8.062258E-5,4.4E-1,-1.8E-1,3.63E-3,-1.239621E-1,4.29E0,2.14E-3,5.533E-2,2.54E-3,2.9E-3,3.8E-4,-4.507E1,9.84E0,-1.2998106E-1,1.1677778E0,2.3410467E-3,9.1E-3,2.7625351E-3,1.09564506E-1,-9.6282475E-2,-4.9269643E-2,-1.1482229E-1,-6.850966E-2,2.0461547E-1,1.2157209E-1,-5.96804E-2,-1.13618374E-1,-2.0897793E-2,-1.1540977E-1,8.284732E-2,1.109274E-1,-1.1927339E-1,1.2532552E-1,-6.080624E-2,1.2653929E-1,-9.804582E-2,-9.7359985E-2,4.9968243E-2,1.0625625E-1,-1.4406993E-2,-7.490704E-2,6.731887E-2],"split_indices":[65,181,180,65,57,163,179,81,128,72,209,208,38,0,27,49,43,32,163,46,27,118,0,147,86,167,65,0,0,0,0,0,0,0,0,0,0,0,0,0,0,0,0,0,0,0,0,0,0,0,0],"split_type":[0,0,0,0,0,0,0,0,0,0,0,0,0,0,0,0,0,0,0,0,0,0,0,0,0,0,0,0,0,0,0,0,0,0,0,0,0,0,0,0,0,0,0,0,0,0,0,0,0,0,0],"sum_hessian":[4.190299E3,1.7169532E3,2.4733455E3,1.5288079E3,1.8814537E2,2.348503E3,1.248425E2,1.1069163E3,4.2189157E2,8.796399E1,1.0018138E2,6.59856E2,1.688647E3,1.1616246E2,8.680034E0,1.0879612E3,1.895518E1,5.6573177E1,3.653184E2,4.3532925E1,4.4431065E1,9.59475E1,4.2338815E0,2.1752977E2,4.4232626E2,1.5125347E3,1.7611237E2,6.8965383E0,1.7834954E0,2.3241106E1,1.06472E3,1.5673262E1,3.2819169E0,3.9137337E1,1.7435843E1,2.6785187E2,9.7466515E1,7.8610563E0,3.5671867E1,4.717188E0,3.9713875E1,9.384869E1,2.0988135E0,2.0318216E2,1.4347611E1,2.838323E2,1.5849397E2,1.4258948E3,8.663987E1,7.3612206E1,1.0250017E2],"tree_param":{"num_deleted":"0","num_feature":"210","num_nodes":"51","size_leaf_vector":"1"}},{"base_weights":[-5.8159702E-3,5.4063994E-1,-8.428642E-1,-2.141142E-1,7.3370767E-1,-1.021865E0,1.8206397E-1,-8.330349E-1,1.0572596E0,8.3039194E-1,-1.0710542E0,4.227548E-1,-1.0584893E0,5.3393734E-1,-9.600948E-1,3.6782876E-1,-1.1615047E0,-1.034355E0,1.1418939E0,-7.2008437E-1,8.8819546E-1,-1.22129396E-1,5.772354E-1,-1.1266718E0,1.1867716E0,-1.1327604E0,-6.867009E-1,-1.0569599E0,8.020933E-1,-1.2216583E0,4.3260583E-1,-7.4270725E-2,1.1610474E-1,-3.6333043E-2,-1.3559191E-1,-1.1752746E-1,-1.1931787E-2,1.20505296E-1,-6.427146E-2,-1.089098E-1,1.3736796E-1,4.075086E-2,1.0291987E-1,1.0594541E-1,-9.147284E-2,1.2561004E-2,-1.2711799E-1,1.2202096E-1,2.3156997E-2,1.07992284E-1,-1.14043675E-1,1.0983783E-2,-9.914775E-2,-1.749716E-1,5.8615305E-2,1.0313105E-1,-9.098288E-2,-1.2753628E-1,-2.7633905E-2,1.04151666E-1,-8.977209E-2],"categories":[],"categories_nodes":[],"categories_segments":[],"categories_sizes":[],"default_left":[0,0,0,0,0,0,0,0,0,0,0,0,0,0,0,0,0,0,0,0,0,0,0,0,0,0,0,0,0,0,0,0,0,0,0,0,0,0,0,0,0,0,0,0,0,0,0,0,0,0,0,0,0,0,0,0,0,0,0,0,0],"id":12,"left_children":[1,3,5,7,9,11,13,15,17,19,21,23,25,27,29,31,33,35,37,39,41,-1,43,45,47,49,51,53,55,57,59,-1,-1,-1,-1,-1,-1,-1,-1,-1,-1,-1,-1,-1,-1,-1,-1,-1,-1,-1,-1,-1,-1,-1,-1,-1,-1,-1,-1,-1,-1],"loss_changes":[1.8076843E3,3.485774E2,2.8656384E2,3.8473743E2,3.3316174E2,7.0763794E1,9.412717E1,1.3006561E2,2.953357E1,1.6267468E2,2.4790878E1,4.1083035E1,3.502112E1,7.70892E1,2.064312E1,6.3713135E1,3.959091E1,7.306037E-1,1.817868E1,5.2128384E1,1.1774756E2,0E0,7.3030605E0,2.2590895E0,4.5122147E-1,1.955957E1,5.3130157E1,3.0859743E1,6.1174072E1,2.0208817E0,8.605514E0,0E0,0E0,0E0,0E0,0E0,0E0,0E0,0E0,0E0,0E0,0E0,0E0,0E0,0E0,0E0,0E0,0E0,0E0,0E0,0E0,0E0,0E0,0E0,0E0,0E0,0E0,0E0,0E0,0E0,0E0],"parents":[2147483647,0,0,1,1,2,2,3,3,4,4,5,5,6,6,7,7,8,8,9,9,10,10,11,11,12,12,13,13,14,14,15,15,16,16,17,17,18,18,19,19,20,20,22,22,23,23,24,24,25,25,26,26,27,27,28,28,29,29,30,30],"right_children":[2,4,6,8,10,12,14,16,18,20,22,24,26,28,30,32,34,36,38,40,42,-1,44,46,48,50,52,54,56,58,60,-1,-1,-1,-1,-1,-1,-1,-1,-1,-1,-1,-1,-1,-1,-1,-1,-1,-1,-1,-1,-1,-1,-1,-1,-1,-1,-1,-1,-1,-1],"split_conditions":[2.8E-3,3.9E-3,2.3259407E-4,1.13E-2,4.27E-1,-4.444E1,1.21E-2,5E-4,1E-5,4E-4,-1.52E0,1.39E-3,1.4399268E-2,1.8E-3,5.31E-2,5E-4,5.5E-1,3.1E-3,1.051E-1,8.854E-2,1.5839507E-3,-1.22129396E-1,4.3E0,6.666667E-5,1.9E-3,1.3E-3,1.23E-2,6.23E-2,4.81E-2,1.8E-3,3.079E1,-7.4270725E-2,1.1610474E-1,-3.6333043E-2,-1.3559191E-1,-1.1752746E-1,-1.1931787E-2,1.20505296E-1,-6.427146E-2,-1.089098E-1,1.3736796E-1,4.075086E-2,1.0291987E-1,1.0594541E-1,-9.147284E-2,1.2561004E-2,-1.2711799E-1,1.2202096E-1,2.3156997E-2,1.07992284E-1,-1.14043675E-1,1.0983783E-2,-9.914775E-2,-1.749716E-1,5.8615305E-2,1.0313105E-1,-9.098288E-2,-1.2753628E-1,-2.7633905E-2,1.04151666E-1,-8.977209E-2],"split_indices":[169,193,83,194,180,207,169,169,53,170,179,37,82,163,196,157,207,7,198,43,65,0,28,132,25,167,169,202,206,157,207,0,0,0,0,0,0,0,0,0,0,0,0,0,0,0,0,0,0,0,0,0,0,0,0,0,0,0,0,0,0],"split_type":[0,0,0,0,0,0,0,0,0,0,0,0,0,0,0,0,0,0,0,0,0,0,0,0,0,0,0,0,0,0,0,0,0,0,0,0,0,0,0,0,0,0,0,0,0,0,0,0,0,0,0,0,0,0,0,0,0,0,0,0,0],"sum_hessian":[3.9500042E3,2.3900474E3,1.5599568E3,4.8682144E2,1.903226E3,1.3280242E3,2.3193268E2,3.2765814E2,1.591633E2,1.8069636E3,9.626233E1,3.2575207E1,1.295449E3,1.7771516E2,5.4217514E1,7.0348595E1,2.5730954E2,5.753452E0,1.5340985E2,6.4532646E1,1.742431E3,8.845849E1,7.803839E0,1.06012335E1,2.1973974E1,1.0780444E3,2.1740451E2,2.520992E1,1.5250525E2,4.574832E1,8.4691925E0,2.9337984E1,4.101061E1,5.0960083E1,2.0634946E2,4.739195E0,1.014257E0,1.4847975E2,4.9300942E0,5.527125E1,9.261396E0,3.960766E2,1.3463544E3,6.116737E0,1.6871024E0,1.1103044E0,9.490929E0,2.0962715E1,1.0112593E0,3.2441556E0,1.0748003E3,6.034126E1,1.5706326E2,1.7687696E1,7.5222235E0,1.3484747E2,1.7657778E1,4.2958664E1,2.7896593E0,5.958838E0,2.510354E0],"tree_param":{"num_deleted":"0","num_feature":"210","num_nodes":"61","size_leaf_vector":"1"}},{"base_weights":[3.6128296E-3,5.22137E-1,-8.1110895E-1,-2.0813572E-1,7.091546E-1,-1.0044458E0,1.02896735E-1,-7.767808E-1,1.0221832E0,8.0358106E-1,-1.0600263E0,3.6970115E-1,-1.0335535E0,5.171626E-1,-8.772586E-1,3.9787453E-1,-1.0905195E0,-1.0802567E-1,1.0996066E0,8.7778455E-1,-3.4846956E-1,-1.1920142E-1,5.772098E-1,-1.0944053E0,1.0664115E0,-1.1090223E0,-6.530002E-1,-9.5956165E-1,7.8901285E-1,1.1637153E-1,-1.0003718E0,-5.0068464E-2,1.2042629E-1,-1.16132736E-1,9.841643E-2,1.1724378E-1,-9.969177E-2,9.292307E-2,-5.4605722E-2,-6.7613624E-2,1.0674192E-1,1.013992E-1,-7.9372555E-2,-9.654457E-3,-1.24974385E-1,1.18094996E-1,-4.1106407E-2,-1.1550482E-1,-7.7044874E-2,9.6254185E-2,-8.350633E-2,-1.3764851E-1,1.09548464E-1,9.812423E-2,-1.00938335E-1,-1.1259717E-1,1.20050386E-1],"categories":[],"categories_nodes":[],"categories_segments":[],"categories_sizes":[],"default_left":[0,0,0,0,0,0,0,0,0,0,0,0,0,0,0,0,0,0,0,0,0,0,0,0,0,0,0,0,0,0,0,0,0,0,0,0,0,0,0,0,0,0,0,0,0,0,0,0,0,0,0,0,0,0,0,0,0],"id":13,"left_children":[1,3,5,7,9,11,13,15,17,19,21,23,25,27,29,31,33,-1,35,37,39,-1,41,43,45,47,49,51,53,-1,55,-1,-1,-1,-1,-1,-1,-1,-1,-1,-1,-1,-1,-1,-1,-1,-1,-1,-1,-1,-1,-1,-1,-1,-1,-1,-1],"loss_changes":[1.5840707E3,3.1308838E2,2.578062E2,3.2817038E2,3.0563605E2,4.8531982E1,1.0420812E2,1.1858362E2,2.533522E1,1.4841553E2,2.0757347E1,2.7389706E1,3.3139404E1,7.311423E1,2.0332127E1,5.0099915E1,3.8351074E1,0E0,2.309114E1,1.1976013E2,4.9693718E1,0E0,5.357051E0,1.2406416E0,3.518818E0,1.4421143E1,5.8913795E1,2.5903606E1,5.3802795E1,0E0,2.1387962E1,0E0,0E0,0E0,0E0,0E0,0E0,0E0,0E0,0E0,0E0,0E0,0E0,0E0,0E0,0E0,0E0,0E0,0E0,0E0,0E0,0E0,0E0,0E0,0E0,0E0,0E0],"parents":[2147483647,0,0,1,1,2,2,3,3,4,4,5,5,6,6,7,7,8,8,9,9,10,10,11,11,12,12,13,13,14,14,15,15,16,16,18,18,19,19,20,20,22,22,23,23,24,24,25,25,26,26,27,27,28,28,30,30],"right_children":[2,4,6,8,10,12,14,16,18,20,22,24,26,28,30,32,34,-1,36,38,40,-1,42,44,46,48,50,52,54,-1,56,-1,-1,-1,-1,-1,-1,-1,-1,-1,-1,-1,-1,-1,-1,-1,-1,-1,-1,-1,-1,-1,-1,-1,-1,-1,-1],"split_conditions":[2.8E-3,3.9E-3,6E-4,1.13E-2,4.27E-1,-4.191E1,1.05E-2,5E-4,2.2222222E-4,9.1E-3,-1.52E0,1.39E-3,1.4399268E-2,1.8E-3,1.5E-3,6E-4,1.443E1,-1.0802567E-1,5.614E-2,1.7566667E0,6.92E0,-1.1920142E-1,4.29E0,5E-4,1.0684573E-2,5.2E-3,1.1111111E-4,1.3666666E-3,7.54E-2,1.1637153E-1,4.92E-1,-5.0068464E-2,1.2042629E-1,-1.16132736E-1,9.841643E-2,1.1724378E-1,-9.969177E-2,9.292307E-2,-5.4605722E-2,-6.7613624E-2,1.0674192E-1,1.013992E-1,-7.9372555E-2,-9.654457E-3,-1.24974385E-1,1.18094996E-1,-4.1106407E-2,-1.1550482E-1,-7.7044874E-2,9.6254185E-2,-8.350633E-2,-1.3764851E-1,1.09548464E-1,9.812423E-2,-1.00938335E-1,-1.1259717E-1,1.20050386E-1],"split_indices":[169,193,113,194,180,208,169,169,125,167,179,37,82,163,172,157,27,0,48,148,207,0,27,195,76,163,135,136,110,0,202,0,0,0,0,0,0,0,0,0,0,0,0,0,0,0,0,0,0,0,0,0,0,0,0,0,0],"split_type":[0,0,0,0,0,0,0,0,0,0,0,0,0,0,0,0,0,0,0,0,0,0,0,0,0,0,0,0,0,0,0,0,0,0,0,0,0,0,0,0,0,0,0,0,0,0,0,0,0,0,0,0,0,0,0,0,0],"sum_hessian":[3.7476953E3,2.2903662E3,1.457329E3,4.6693808E2,1.8234282E3,1.2028043E3,2.5452455E2,3.19593E2,1.4734508E2,1.7315558E3,9.187249E1,2.4706985E1,1.1780974E3,1.7924039E2,7.5284164E1,6.731052E1,2.5228247E2,4.773299E0,1.4257178E2,1.6269989E3,1.0455685E2,8.5270256E1,6.6022363E0,7.7822037E0,1.6924782E1,9.815321E2,1.965653E2,2.747314E1,1.5176724E2,3.8020058E0,7.148216E1,3.2015133E1,3.5295383E1,2.4438208E2,7.9003925E0,1.3821123E2,4.3605485E0,1.5705977E3,5.640128E1,8.533173E1,1.9225111E1,5.204454E0,1.3977823E0,1.2667013E0,6.515502E0,1.5893374E1,1.031407E0,8.619469E2,1.19585205E2,1.9474144E1,1.7709117E2,2.3114014E1,4.3591285E0,1.3752199E2,1.42452545E1,6.808507E1,3.3970897E0],"tree_param":{"num_deleted":"0","num_feature":"210","num_nodes":"57","size_leaf_vector":"1"}},{"base_weights":[-3.1714372E-3,4.9108356E-1,-7.8291494E-1,-4.1113546E-1,6.3309354E-1,-9.705097E-1,1.5344818E-1,7.1279824E-1,-1.1922752E0,7.128486E-1,-1.0150936E0,4.8209682E-1,-1.0044314E0,5.1389253E-1,-9.457862E-1,-1.1672453E-1,1.10141E0,-1.3086438E0,1.11789644E-1,7.9623795E-1,-4.5512915E-1,-1.17449574E-1,6.680009E-1,-1.1181747E-1,9.168244E-1,-1.0832168E0,-5.9507555E-1,-8.1755465E-1,7.328698E-1,1.0784965E-1,-1.059451E0,1.1863927E-1,-1.12264685E-1,-1.3331169E-1,1.0830569E-1,4.9435563E-2,1.060918E-1,-7.187225E-2,9.88479E-2,1.01841606E-1,-7.381535E-2,1.14875115E-1,-9.8961756E-2,-1.1303454E-1,-7.437767E-2,-9.6516244E-2,2.9865239E-2,-1.38853E-1,1.06310606E-1,8.9388676E-2,-1.0337498E-1,8.0399E-2,-1.1516904E-1],"categories":[],"categories_nodes":[],"categories_segments":[],"categories_sizes":[],"default_left":[0,0,0,0,0,0,0,0,0,0,0,0,0,0,0,0,0,0,0,0,0,0,0,0,0,0,0,0,0,0,0,0,0,0,0,0,0,0,0,0,0,0,0,0,0,0,0,0,0,0,0,0,0],"id":14,"left_children":[1,3,5,7,9,11,13,15,17,19,21,23,25,27,29,-1,31,33,-1,35,37,-1,39,-1,41,43,45,47,49,-1,51,-1,-1,-1,-1,-1,-1,-1,-1,-1,-1,-1,-1,-1,-1,-1,-1,-1,-1,-1,-1,-1,-1],"loss_changes":[1.3610739E3,2.7720526E2,2.4082098E2,2.594626E2,2.4627081E2,5.673535E1,9.143475E1,8.99861E1,4.8282043E1,1.7395679E2,2.4026634E1,1.961784E1,3.534314E1,5.118733E1,1.4265682E1,0E0,2.0445053E1,1.1175812E1,0E0,1.3242737E2,4.6148598E1,0E0,4.7588096E0,0E0,1.0672323E1,1.4109375E1,6.0590813E1,2.8298664E1,4.345923E1,0E0,1.0294708E1,0E0,0E0,0E0,0E0,0E0,0E0,0E0,0E0,0E0,0E0,0E0,0E0,0E0,0E0,0E0,0E0,0E0,0E0,0E0,0E0,0E0,0E0],"parents":[2147483647,0,0,1,1,2,2,3,3,4,4,5,5,6,6,7,7,8,8,9,9,10,10,11,11,12,12,13,13,14,14,16,16,17,17,19,19,20,20,22,22,24,24,25,25,26,26,27,27,28,28,30,30],"right_children":[2,4,6,8,10,12,14,16,18,20,22,24,26,28,30,-1,32,34,-1,36,38,-1,40,-1,42,44,46,48,50,-1,52,-1,-1,-1,-1,-1,-1,-1,-1,-1,-1,-1,-1,-1,-1,-1,-1,-1,-1,-1,-1,-1,-1],"split_conditions":[2.8E-3,2.8E-3,8E-4,-3.38E0,4.27E-1,-4.191E1,1.21E-2,1.62E-3,3.49E-2,9.1E-3,-1.52E0,7E-5,1.5885515E-2,1.8E-3,1E-4,-1.1672453E-1,9.0555555E-1,1.06E-2,1.11789644E-1,1.4E-2,6.92E0,-1.17449574E-1,4.29E0,-1.1181747E-1,1.4E-3,5.2E-3,7E-4,8.1E-3,1.1022222E-2,1.0784965E-1,2.73E-3,1.1863927E-1,-1.12264685E-1,-1.3331169E-1,1.0830569E-1,4.9435563E-2,1.060918E-1,-7.187225E-2,9.88479E-2,1.01841606E-1,-7.381535E-2,1.14875115E-1,-9.8961756E-2,-1.1303454E-1,-7.437767E-2,-9.6516244E-2,2.9865239E-2,-1.38853E-1,1.06310606E-1,8.9388676E-2,-1.0337498E-1,8.0399E-2,-1.1516904E-1],"split_indices":[169,193,203,207,180,208,169,35,202,167,179,53,82,163,156,0,148,94,0,185,207,0,27,0,102,163,157,191,146,0,52,0,0,0,0,0,0,0,0,0,0,0,0,0,0,0,0,0,0,0,0,0,0],"split_type":[0,0,0,0,0,0,0,0,0,0,0,0,0,0,0,0,0,0,0,0,0,0,0,0,0,0,0,0,0,0,0,0,0,0,0,0,0,0,0,0,0,0,0,0,0,0,0,0,0,0,0,0,0],"sum_hessian":[3.5296626E3,2.1605364E3,1.3691262E3,2.9356454E2,1.8669718E3,1.140581E3,2.2854512E2,1.2040652E2,1.73158E2,1.781341E3,8.5630806E1,2.5725811E1,1.1148552E3,1.7251056E2,5.6034557E1,2.0281956E1,1.00124565E2,1.6526668E2,7.891333E0,1.662932E3,1.1840899E2,7.8498566E1,7.1322403E0,5.1598415E0,2.056597E1,9.335384E2,1.8131685E2,2.39788E1,1.4853175E2,2.5278118E0,5.350675E1,9.688894E1,3.2356238E0,1.6403084E2,1.2358363E0,7.7820905E2,8.8472296E2,1.0055115E2,1.785784E1,5.9301777E0,1.2020626E0,1.8689722E1,1.8762466E0,8.1768E2,1.15858376E2,1.2816475E2,5.3152107E1,1.8594976E1,5.383823E0,1.3657753E2,1.1954225E1,2.1596966E0,5.134705E1],"tree_param":{"num_deleted":"0","num_feature":"210","num_nodes":"53","size_leaf_vector":"1"}},{"base_weights":[-1.4127593E-3,-6.237277E-1,5.665564E-1,-8.384206E-1,4.2031744E-1,6.639041E-1,-9.306455E-1,-1.0161412E0,-4.6412548E-1,-2.0496581E-1,1.0871484E0,2.696461E-1,9.15102E-1,-1.1605834E0,5.973349E-1,-1.091635E0,-4.1249123E-1,-9.416634E-1,1.740238E-1,-6.3092905E-1,9.656416E-1,1.1630281E0,-1.216458E0,-5.8022624E-1,5.709552E-1,9.5152014E-1,-1.6463971E0,-1.1686136E-1,-2.173102E-2,-1.3087644E-1,1.0679182E-1,-1.0743924E-1,-1.882567E-1,8.3993815E-2,-6.791592E-2,-1.0062962E-1,5.5900086E-2,7.759195E-2,-1.0856266E-1,5.594924E-2,-1.6974604E-1,-1.1615016E-1,1.256014E-1,1.1916182E-1,-4.5096673E-2,-3.0835215E-2,-1.4070097E-1,7.549443E-2,-8.778217E-2,6.7844674E-2,-1.281578E-1,9.863026E-2,-4.700272E-2,7.201928E-2,-1.9743423E-1],"categories":[],"categories_nodes":[],"categories_segments":[],"categories_sizes":[],"default_left":[0,0,0,0,0,0,0,0,0,0,0,0,0,0,0,0,0,0,0,0,0,0,0,0,0,0,0,0,0,0,0,0,0,0,0,0,0,0,0,0,0,0,0,0,0,0,0,0,0,0,0,0,0,0,0],"id":15,"left_children":[1,3,5,7,9,11,13,15,17,19,21,23,25,27,29,31,33,35,37,39,41,43,45,47,49,51,53,-1,-1,-1,-1,-1,-1,-1,-1,-1,-1,-1,-1,-1,-1,-1,-1,-1,-1,-1,-1,-1,-1,-1,-1,-1,-1,-1,-1],"loss_changes":[1.1774797E3,3.5666345E2,2.544721E2,8.725641E1,1.1354969E2,1.6177466E2,3.8198456E1,4.0263123E1,1.3011539E2,7.097087E1,2.4433075E1,1.6373325E2,9.474585E1,4.5143127E-1,1.4514247E1,8.798401E0,3.4274906E1,2.4235062E1,1.3986688E2,1.3307361E2,2.4956451E1,6.443741E0,3.773837E-1,6.7222275E1,9.477814E1,4.9191467E1,1.2573536E1,0E0,0E0,0E0,0E0,0E0,0E0,0E0,0E0,0E0,0E0,0E0,0E0,0E0,0E0,0E0,0E0,0E0,0E0,0E0,0E0,0E0,0E0,0E0,0E0,0E0,0E0,0E0,0E0],"parents":[2147483647,0,0,1,1,2,2,3,3,4,4,5,5,6,6,7,7,8,8,9,9,10,10,11,11,12,12,13,13,14,14,15,15,16,16,17,17,18,18,19,19,20,20,21,21,22,22,23,23,24,24,25,25,26,26],"right_children":[2,4,6,8,10,12,14,16,18,20,22,24,26,28,30,32,34,36,38,40,42,44,46,48,50,52,54,-1,-1,-1,-1,-1,-1,-1,-1,-1,-1,-1,-1,-1,-1,-1,-1,-1,-1,-1,-1,-1,-1,-1,-1,-1,-1,-1,-1],"split_conditions":[1.4355835E-3,2E-4,3.967E-1,2.9E-3,1.115E1,2.7E-3,-1.63E0,1.3E-3,9E-4,8E-1,9.5E-1,2.2E-3,9.9E-3,3E-1,1.7652479E-3,6.4E-4,2.19E-3,4.5088887E-2,1.8E-3,-7.11E0,1E-5,9.84E0,-5.9E-1,-3.38E0,1.0266666E-2,2.189515E0,1.6E-3,-1.1686136E-1,-2.173102E-2,-1.3087644E-1,1.0679182E-1,-1.0743924E-1,-1.882567E-1,8.3993815E-2,-6.791592E-2,-1.0062962E-1,5.5900086E-2,7.759195E-2,-1.0856266E-1,5.594924E-2,-1.6974604E-1,-1.1615016E-1,1.256014E-1,1.1916182E-1,-4.5096673E-2,-3.0835215E-2,-1.4070097E-1,7.549443E-2,-8.778217E-2,6.7844674E-2,-1.281578E-1,9.863026E-2,-4.700272E-2,7.201928E-2,-1.9743423E-1],"split_indices":[65,181,180,163,178,163,179,190,95,209,209,116,192,29,86,53,49,142,183,177,33,118,29,207,137,87,156,0,0,0,0,0,0,0,0,0,0,0,0,0,0,0,0,0,0,0,0,0,0,0,0,0,0,0,0],"split_type":[0,0,0,0,0,0,0,0,0,0,0,0,0,0,0,0,0,0,0,0,0,0,0,0,0,0,0,0,0,0,0,0,0,0,0,0,0,0,0,0,0,0,0,0,0,0,0,0,0,0,0,0,0,0,0],"sum_hessian":[3.3293364E3,1.5886162E3,1.7407202E3,1.317822E3,2.7079425E2,1.6349714E3,1.0574886E2,8.923886E2,4.2543335E2,1.4010825E2,1.30686E2,6.371037E2,9.9786774E2,9.212578E1,1.3623085E1,7.9247186E2,9.991675E1,2.4306677E2,1.823666E2,1.03065544E2,3.7042698E1,1.2699788E2,3.6881216E0,1.665126E2,4.7059106E2,9.8449915E2,1.3368576E1,9.111125E1,1.0145264E0,2.3447032E0,1.1278381E1,7.7787244E2,1.4599446E1,1.7162378E1,8.275437E1,2.3334612E2,9.720652E0,1.2366166E2,5.8704926E1,4.892866E1,5.4136887E1,4.0889273E0,3.295377E1,1.25044556E2,1.9533257E0,1.0937724E0,2.5943491E0,3.0069246E1,1.3644336E2,4.4538196E2,2.5209093E1,9.612846E2,2.3214533E1,1.4814851E0,1.1887091E1],"tree_param":{"num_deleted":"0","num_feature":"210","num_nodes":"55","size_leaf_vector":"1"}},{"base_weights":[9.500792E-6,-9.490344E-1,3.480575E-1,-9.787782E-1,4.6615994E-1,-4.961251E-1,5.221644E-1,-1.0503981E0,-6.2218726E-1,9.6784794E-1,-9.432614E-2,-1.0634367E0,2.0229699E-1,9.221073E-1,1.8381272E-1,-1.0924406E0,-6.7884815E-1,-8.7437433E-1,4.4122785E-1,1.12231866E-1,-4.6021517E-2,-1.1605349E0,4.960937E-1,5.367897E-1,-1.0836602E0,5.76335E-1,1.1008843E0,3.7317201E-1,-8.1021136E-1,-1.09665625E-1,7.164589E-2,1.2196859E-1,-8.502637E-2,-9.472464E-2,9.654933E-2,-7.770833E-2,1.2246815E-1,-1.1854684E-1,1.1699646E-1,1.1552858E-1,-1.1493617E-1,1.0184669E-1,-4.492141E-2,-1.2024032E-1,8.736383E-2,9.4616376E-2,-2.281206E-2,1.1293685E-1,-9.87668E-2,-1.5169396E-2,6.918262E-2,-1.2283225E-1,-2.1069773E-2],"categories":[],"categories_nodes":[],"categories_segments":[],"categories_sizes":[],"default_left":[0,0,0,0,0,0,0,0,0,0,0,0,0,0,0,0,0,0,0,0,0,0,0,0,0,0,0,0,0,0,0,0,0,0,0,0,0,0,0,0,0,0,0,0,0,0,0,0,0,0,0,0,0],"id":16,"left_children":[1,3,5,7,9,11,13,15,17,19,-1,21,23,25,27,29,31,33,35,-1,-1,37,39,41,43,45,47,49,51,-1,-1,-1,-1,-1,-1,-1,-1,-1,-1,-1,-1,-1,-1,-1,-1,-1,-1,-1,-1,-1,-1,-1,-1],"loss_changes":[1.0372727E3,3.592517E1,3.3796234E2,2.043164E1,1.3656608E1,1.5607484E2,2.5765588E2,9.975342E0,3.807542E1,3.5574207E0,0E0,3.346805E1,7.678108E1,5.332599E1,1.9480981E2,5.4731445E0,2.4592697E1,1.61903E1,2.7299828E1,0E0,0E0,1.3286407E1,1.5897047E1,6.754241E1,9.626183E0,8.93522E1,3.5281555E1,1.4539464E2,4.126834E1,0E0,0E0,0E0,0E0,0E0,0E0,0E0,0E0,0E0,0E0,0E0,0E0,0E0,0E0,0E0,0E0,0E0,0E0,0E0,0E0,0E0,0E0,0E0,0E0],"parents":[2147483647,0,0,1,1,2,2,3,3,4,4,5,5,6,6,7,7,8,8,9,9,11,11,12,12,13,13,14,14,15,15,16,16,17,17,18,18,21,21,22,22,23,23,24,24,25,25,26,26,27,27,28,28],"right_children":[2,4,6,8,10,12,14,16,18,20,-1,22,24,26,28,30,32,34,36,-1,-1,38,40,42,44,46,48,50,52,-1,-1,-1,-1,-1,-1,-1,-1,-1,-1,-1,-1,-1,-1,-1,-1,-1,-1,-1,-1,-1,-1,-1,-1],"split_conditions":[1.3E-3,3.2E-3,1E-5,7.6E-4,2.476E-2,1.45E-2,3.3333334E-5,4.04E-2,1.9595918E-4,3E-5,-9.432614E-2,5E-3,2.3444444E-3,1.38E-2,2.2444443E-3,3.736E-2,3E-5,7.3333335E-4,-2.226E1,1.12231866E-1,-4.6021517E-2,3.088889E-3,8.555556E-4,3E-2,-7.9E-2,1E-3,3.5723E-1,2.5E-4,5E-3,-1.09665625E-1,7.164589E-2,1.2196859E-1,-8.502637E-2,-9.472464E-2,9.654933E-2,-7.770833E-2,1.2246815E-1,-1.1854684E-1,1.1699646E-1,1.1552858E-1,-1.1493617E-1,1.0184669E-1,-4.492141E-2,-1.2024032E-1,8.736383E-2,9.4616376E-2,-2.281206E-2,1.1293685E-1,-9.87668E-2,-1.5169396E-2,6.918262E-2,-1.2283225E-1,-2.1069773E-2],"split_indices":[95,204,39,40,50,185,132,107,65,63,0,163,124,185,128,44,85,124,27,0,0,125,124,150,59,176,30,40,90,0,0,0,0,0,0,0,0,0,0,0,0,0,0,0,0,0,0,0,0,0,0,0,0],"split_type":[0,0,0,0,0,0,0,0,0,0,0,0,0,0,0,0,0,0,0,0,0,0,0,0,0,0,0,0,0,0,0,0,0,0,0,0,0,0,0,0,0,0,0,0,0,0,0,0,0,0,0,0,0],"sum_hessian":[3.1382734E3,8.41628E2,2.2966455E3,8.246053E2,1.702271E1,3.9236365E2,1.9042819E3,6.850665E2,1.3953876E2,1.278511E1,4.2375994E0,2.1621484E2,1.761488E2,8.719191E2,1.0323628E3,6.1368524E2,7.138132E1,1.1293434E2,2.6604416E1,1.1730358E1,1.0547522E0,2.0378293E2,1.24319105E1,1.4025055E2,3.589826E1,2.986072E2,5.7331195E2,8.676937E2,1.6466905E2,6.126512E2,1.0340408E0,5.4047675E0,6.597655E1,1.0909841E2,3.8359294E0,1.0415658E1,1.6188757E1,2.021119E2,1.6710315E0,9.088732E0,3.3431785E0,9.41997E1,4.6050842E1,3.4208614E1,1.6896436E0,2.044433E2,9.416393E1,5.660513E2,7.260656E0,3.279841E2,5.397096E2,9.639362E1,6.827544E1],"tree_param":{"num_deleted":"0","num_feature":"210","num_nodes":"53","size_leaf_vector":"1"}},{"base_weights":[-8.269418E-3,4.2103893E-1,-7.211692E-1,2.541528E-2,7.152539E-1,-8.9894515E-1,5.780067E-2,-4.73862E-1,6.154465E-1,8.26216E-1,-1.0121464E0,-1.0158255E0,-4.6640903E-1,4.133846E-1,-8.319902E-1,-1.4918333E-1,-1.8339213E0,-6.574523E-1,7.623576E-1,-6.332709E-1,9.1479564E-1,-1.1246308E-1,3.1280807E-1,-1.054835E0,-1.3572201E-1,-1.0519842E0,3.0035242E-1,-5.336611E-1,7.8193074E-1,1.006935E-1,-9.3293756E-1,-9.998641E-2,6.274805E-2,7.999169E-2,-2.2817178E-1,-1.1126252E-1,1.0318011E-1,-3.5344813E-2,8.938282E-2,-9.302895E-2,1.359833E-1,9.941888E-2,8.297871E-3,8.7520145E-2,-7.864979E-2,-1.061755E-1,1.0728134E-1,6.545691E-2,-9.673148E-2,1.3269787E-1,-1.0978001E-1,-5.253739E-2,1.3713847E-1,1.0448922E-1,-1.2582254E-1,9.875446E-2,-1.0400083E-1,-1.0678209E-1,6.0581435E-2],"categories":[],"categories_nodes":[],"categories_segments":[],"categories_sizes":[],"default_left":[0,0,0,0,0,0,0,0,0,0,0,0,0,0,0,0,0,0,0,0,0,0,0,0,0,0,0,0,0,0,0,0,0,0,0,0,0,0,0,0,0,0,0,0,0,0,0,0,0,0,0,0,0,0,0,0,0,0,0],"id":17,"left_children":[1,3,5,7,9,11,13,15,17,19,21,23,25,27,29,31,33,35,37,39,41,-1,43,45,47,49,51,53,55,-1,57,-1,-1,-1,-1,-1,-1,-1,-1,-1,-1,-1,-1,-1,-1,-1,-1,-1,-1,-1,-1,-1,-1,-1,-1,-1,-1,-1,-1],"loss_changes":[9.161527E2,2.1745374E2,1.5585876E2,2.3533878E2,2.0620929E2,4.5839966E1,6.678654E1,1.9081786E2,6.897017E1,1.308089E2,1.005735E1,2.4588745E1,8.865018E1,5.3018623E1,1.2131607E1,2.321567E2,1.0008127E2,3.0690891E1,4.853717E1,3.5736748E1,6.2663147E1,0E0,4.322615E0,1.1292847E1,2.1480816E1,1.3639069E1,7.674791E1,5.028269E1,4.182052E1,0E0,1.2617077E1,0E0,0E0,0E0,0E0,0E0,0E0,0E0,0E0,0E0,0E0,0E0,0E0,0E0,0E0,0E0,0E0,0E0,0E0,0E0,0E0,0E0,0E0,0E0,0E0,0E0,0E0,0E0,0E0],"parents":[2147483647,0,0,1,1,2,2,3,3,4,4,5,5,6,6,7,7,8,8,9,9,10,10,11,11,12,12,13,13,14,14,15,15,16,16,17,17,18,18,19,19,20,20,22,22,23,23,24,24,25,25,26,26,27,27,28,28,30,30],"right_children":[2,4,6,8,10,12,14,16,18,20,22,24,26,28,30,32,34,36,38,40,42,-1,44,46,48,50,52,54,56,-1,58,-1,-1,-1,-1,-1,-1,-1,-1,-1,-1,-1,-1,-1,-1,-1,-1,-1,-1,-1,-1,-1,-1,-1,-1,-1,-1,-1,-1],"split_conditions":[2.8E-3,2.2842067E-3,6E-4,1.72E-2,4.27E-1,5.2E-3,1.05E-2,4E-4,6E-5,6E-4,-1.52E0,8.4E-4,1.25E-3,2.4E-3,2E-4,2.77E-3,5.7E-4,1.8E-1,1.8E-3,1.3262E-1,1.686E-2,-1.1246308E-1,4.3E0,4.494E1,1.23E-2,1.2E-4,7E-4,1.5555555E-4,1.6555555E-2,1.006935E-1,4.333E-2,-9.998641E-2,6.274805E-2,7.999169E-2,-2.2817178E-1,-1.1126252E-1,1.0318011E-1,-3.5344813E-2,8.938282E-2,-9.302895E-2,1.359833E-1,9.941888E-2,8.297871E-3,8.7520145E-2,-7.864979E-2,-1.061755E-1,1.0728134E-1,6.545691E-2,-9.673148E-2,1.3269787E-1,-1.0978001E-1,-5.253739E-2,1.3713847E-1,1.0448922E-1,-1.2582254E-1,9.875446E-2,-1.0400083E-1,-1.0678209E-1,6.0581435E-2],"split_indices":[169,65,113,202,180,163,169,174,53,164,179,39,37,163,156,43,49,209,164,43,47,0,28,207,169,55,158,128,145,0,43,0,0,0,0,0,0,0,0,0,0,0,0,0,0,0,0,0,0,0,0,0,0,0,0,0,0,0,0],"split_type":[0,0,0,0,0,0,0,0,0,0,0,0,0,0,0,0,0,0,0,0,0,0,0,0,0,0,0,0,0,0,0,0,0,0,0,0,0,0,0,0,0,0,0,0,0,0,0,0,0,0,0,0,0,0,0,0,0,0,0],"sum_hessian":[2.9914448E3,1.8673411E3,1.1241038E3,7.968811E2,1.07046E3,9.1510504E2,2.089987E2,4.317426E2,3.651385E2,1.00633813E3,6.4121895E1,7.1936804E2,1.9573697E2,1.4970717E2,5.9291523E1,3.4943405E2,8.230857E1,3.7422153E1,3.2771634E2,5.7230343E1,9.491078E2,5.9243507E1,4.8783917E0,6.886462E2,3.0721893E1,1.10770004E2,8.4966965E1,4.1813034E1,1.0789414E2,2.618386E0,5.6673138E1,1.6663316E2,1.8280087E2,1.1846104E1,7.046246E1,2.9747875E1,7.674277E0,3.436535E1,2.9335098E2,5.027191E1,6.9584303E0,8.6623444E2,8.287336E1,3.3621905E0,1.5162014E0,6.86913E2,1.7331308E0,1.5861264E1,1.486063E1,1.564625E0,1.0920538E2,4.826551E1,3.6701454E1,1.3015359E1,2.8797674E1,9.736414E1,1.0529997E1,5.238706E1,4.28608E0],"tree_param":{"num_deleted":"0","num_feature":"210","num_nodes":"59","size_leaf_vector":"1"}},{"base_weights":[-3.8802184E-3,-8.797673E-1,3.1266192E-1,-9.955355E-1,-3.8545993E-1,7.7481383E-1,2.15676E-2,-1.009264E0,4.014551E-1,-6.9360214E-1,7.465057E-1,-7.218686E-1,9.110444E-1,-7.100713E-1,2.615747E-1,-1.0531149E0,-7.2614384E-1,2.5916126E-1,-9.356722E-2,-8.741214E-1,-1.0120823E-2,1.1446795E0,-6.688389E-1,-8.205678E-2,-1.2374146E-1,9.324666E-1,-9.86872E-2,-1.0673436E0,7.266801E-2,5.6517625E-1,-4.1424277E-1,-1.0750373E-1,-3.6940407E-2,5.847E-3,-9.581666E-2,-1.1355962E-1,-3.1864643E-2,1.5510859E-1,-9.929546E-2,1.3401307E-1,-9.13423E-2,3.1320043E-2,-9.895319E-2,-8.91849E-2,1.1918854E-1,6.1426736E-2,1.0620296E-1,9.051779E-2,-1.12492315E-1,7.3330514E-2,-1.2233601E-1,7.8950346E-2,-4.83704E-2,-1.0297848E-1,4.9925722E-2],"categories":[],"categories_nodes":[],"categories_segments":[],"categories_sizes":[],"default_left":[0,0,0,0,0,0,0,0,0,0,0,0,0,0,0,0,0,0,0,0,0,0,0,0,0,0,0,0,0,0,0,0,0,0,0,0,0,0,0,0,0,0,0,0,0,0,0,0,0,0,0,0,0,0,0],"id":18,"left_children":[1,3,5,7,9,11,13,15,17,19,21,23,25,27,29,31,33,-1,-1,35,37,39,41,43,-1,45,-1,47,49,51,53,-1,-1,-1,-1,-1,-1,-1,-1,-1,-1,-1,-1,-1,-1,-1,-1,-1,-1,-1,-1,-1,-1,-1,-1],"loss_changes":[7.8610944E2,4.26875E1,2.8016467E2,1.2088867E1,5.090558E1,1.6475674E2,2.2474907E2,6.7285767E0,2.1881826E1,1.4064838E1,1.8456385E1,2.223043E1,3.0930603E1,8.8491425E1,1.9796277E2,7.402893E0,1.5378326E1,0E0,0E0,1.2742256E1,3.9661064E1,1.1227486E1,2.6793113E0,3.333392E1,0E0,2.9459656E1,0E0,2.5680328E1,8.6533E1,1.5694202E2,1.6881097E2,0E0,0E0,0E0,0E0,0E0,0E0,0E0,0E0,0E0,0E0,0E0,0E0,0E0,0E0,0E0,0E0,0E0,0E0,0E0,0E0,0E0,0E0,0E0,0E0],"parents":[2147483647,0,0,1,1,2,2,3,3,4,4,5,5,6,6,7,7,8,8,9,9,10,10,11,11,12,12,13,13,14,14,15,15,16,16,19,19,20,20,21,21,22,22,23,23,25,25,27,27,28,28,29,29,30,30],"right_children":[2,4,6,8,10,12,14,16,18,20,22,24,26,28,30,32,34,-1,-1,36,38,40,42,44,-1,46,-1,48,50,52,54,-1,-1,-1,-1,-1,-1,-1,-1,-1,-1,-1,-1,-1,-1,-1,-1,-1,-1,-1,-1,-1,-1,-1,-1],"split_conditions":[4.243819E-4,7.6E-4,6E-4,5.174E-2,8E-4,4E-4,2E-5,9E-4,1.3453624E-4,2.441E1,1.2E-2,2.97E-2,3.5723E-1,4.49E-3,9E-4,4.49E-2,7.7777775E-5,2.5916126E-1,-9.356722E-2,1.4E-3,4.111111E-4,1.3974152E0,9E-4,3.815757E-4,-1.2374146E-1,2.4373962E-3,-9.86872E-2,-3.19E0,1.3E-2,5.9E-3,1.277E1,-1.0750373E-1,-3.6940407E-2,5.847E-3,-9.581666E-2,-1.1355962E-1,-3.1864643E-2,1.5510859E-1,-9.929546E-2,1.3401307E-1,-9.13423E-2,3.1320043E-2,-9.895319E-2,-8.91849E-2,1.1918854E-1,6.1426736E-2,1.0620296E-1,9.051779E-2,-1.12492315E-1,7.3330514E-2,-1.2233601E-1,7.8950346E-2,-4.83704E-2,-1.0297848E-1,4.9925722E-2],"split_indices":[65,40,169,43,95,170,39,95,76,177,110,104,30,43,175,167,33,0,0,37,127,88,188,83,0,65,0,208,184,169,177,0,0,0,0,0,0,0,0,0,0,0,0,0,0,0,0,0,0,0,0,0,0,0,0],"split_type":[0,0,0,0,0,0,0,0,0,0,0,0,0,0,0,0,0,0,0,0,0,0,0,0,0,0,0,0,0,0,0,0,0,0,0,0,0,0,0,0,0,0,0,0,0,0,0,0,0,0,0,0,0,0,0],"sum_hessian":[2.833336E3,7.5166473E2,2.0816714E3,6.08207E2,1.434578E2,8.0382605E2,1.2778452E3,6.02563E2,5.643946E0,1.130663E2,3.03915E1,6.670292E1,7.3712317E2,3.1515784E2,9.626874E2,5.1939685E2,8.316616E1,1.7838621E0,3.8600843E0,8.922223E1,2.384407E1,2.386803E1,6.523471E0,3.0281551E1,3.642137E1,7.293989E2,7.7242036E0,2.1613974E2,9.901809E1,6.6438525E2,2.983021E2,5.027058E2,1.6691032E1,1.915138E1,6.401478E1,5.9955463E1,2.9266768E1,8.988263E0,1.4855807E1,2.2116547E1,1.7514834E0,1.6116309E0,4.9118404E0,1.869674E1,1.1584812E1,2.1271753E2,5.166814E2,5.7128305E0,2.1042691E2,6.587379E1,3.3144302E1,5.475305E2,1.16854744E2,1.7813943E2,1.2016267E2],"tree_param":{"num_deleted":"0","num_feature":"210","num_nodes":"55","size_leaf_vector":"1"}},{"base_weights":[2.6333833E-3,4.6221727E-1,-5.7673436E-1,-7.6034296E-1,5.346786E-1,-8.437741E-1,7.431483E-2,-1.072231E0,2.771056E-1,9.486233E-1,2.3609804E-1,-9.656541E-1,-4.1725284E-1,3.6182514E-1,-8.8045055E-1,-1.2375958E-1,6.1242324E-1,1.4655253E0,-1.1252697E-1,9.706124E-1,-1.6129847E0,5.6493074E-1,-8.268837E-1,9.894559E-2,-9.796069E-1,-9.4399023E-1,2.1681486E-1,-4.917127E-1,6.42012E-1,6.77279E-1,-9.830213E-1,-6.28023E-2,9.559709E-2,3.6862243E-2,1.5516318E-1,9.9127986E-2,-8.600634E-2,-3.2304566E-2,-1.8712656E-1,9.217818E-2,3.1072063E-2,-1.2826982E-1,-2.2118283E-2,-4.9369708E-2,-1.029947E-1,-1.02285184E-1,7.7583306E-2,1.03312336E-1,-1.04818545E-1,8.333186E-2,-8.575178E-2,8.268104E-2,-1.2976925E-1,-5.7692386E-2,1.08059146E-1,-1.050353E-1,7.475325E-2],"categories":[],"categories_nodes":[],"categories_segments":[],"categories_sizes":[],"default_left":[0,0,0,0,0,0,0,0,0,0,0,0,0,0,0,0,0,0,0,0,0,0,0,0,0,0,0,0,0,0,0,0,0,0,0,0,0,0,0,0,0,0,0,0,0,0,0,0,0,0,0,0,0,0,0,0,0],"id":19,"left_children":[1,3,5,7,9,11,13,15,17,19,21,23,25,27,29,-1,31,33,-1,35,37,39,41,-1,43,45,47,49,51,53,55,-1,-1,-1,-1,-1,-1,-1,-1,-1,-1,-1,-1,-1,-1,-1,-1,-1,-1,-1,-1,-1,-1,-1,-1,-1,-1],"loss_changes":[7.127787E2,1.326488E2,2.059338E2,2.7457115E1,1.7402554E2,4.3253662E1,9.511768E1,1.8794098E1,3.5308758E1,3.482434E1,2.8722546E2,1.8766296E1,6.312901E1,6.3960293E1,1.3482746E1,0E0,3.3516173E0,5.016079E-1,0E0,2.3026062E1,1.1949472E0,5.660556E1,5.334085E1,0E0,1.5348877E1,1.4776611E1,9.020395E1,3.286824E1,7.304751E1,3.4296894E0,9.602287E0,0E0,0E0,0E0,0E0,0E0,0E0,0E0,0E0,0E0,0E0,0E0,0E0,0E0,0E0,0E0,0E0,0E0,0E0,0E0,0E0,0E0,0E0,0E0,0E0,0E0,0E0],"parents":[2147483647,0,0,1,1,2,2,3,3,4,4,5,5,6,6,7,7,8,8,9,9,10,10,11,11,12,12,13,13,14,14,16,16,17,17,19,19,20,20,21,21,22,22,24,24,25,25,26,26,27,27,28,28,29,29,30,30],"right_children":[2,4,6,8,10,12,14,16,18,20,22,24,26,28,30,-1,32,34,-1,36,38,40,42,-1,44,46,48,50,52,54,56,-1,-1,-1,-1,-1,-1,-1,-1,-1,-1,-1,-1,-1,-1,-1,-1,-1,-1,-1,-1,-1,-1,-1,-1,-1,-1],"split_conditions":[1.9E-3,4E-4,1.07703294E-4,2.172E-2,5E-4,4.1233604E-3,1.05E-2,1.8E-1,5E-4,2.91E-2,1.94E-2,-4.3514E1,7E-4,1.9E-3,2E-3,-1.2375958E-1,4E-4,3.2E-4,-1.1252697E-1,4.126E-1,5.0145886E-3,5E-4,2.0883296E-2,9.894559E-2,1E-4,2.974E1,8.555556E-4,1.09E-2,7.2E-3,1.548E-2,4.92E-1,-6.28023E-2,9.559709E-2,3.6862243E-2,1.5516318E-1,9.9127986E-2,-8.600634E-2,-3.2304566E-2,-1.8712656E-1,9.217818E-2,3.1072063E-2,-1.2826982E-1,-2.2118283E-2,-4.9369708E-2,-1.029947E-1,-1.02285184E-1,7.7583306E-2,1.03312336E-1,-1.04818545E-1,8.333186E-2,-8.575178E-2,8.268104E-2,-1.2976925E-1,-5.7692386E-2,1.08059146E-1,-1.050353E-1,7.475325E-2],"split_indices":[169,170,83,46,169,74,169,209,191,16,150,58,157,163,172,0,7,40,0,0,73,175,60,0,192,177,122,156,150,43,202,0,0,0,0,0,0,0,0,0,0,0,0,0,0,0,0,0,0,0,0,0,0,0,0,0,0],"split_type":[0,0,0,0,0,0,0,0,0,0,0,0,0,0,0,0,0,0,0,0,0,0,0,0,0,0,0,0,0,0,0,0,0,0,0,0,0,0,0,0,0,0,0,0,0,0,0,0,0,0,0,0,0,0,0,0,0],"sum_hessian":[2.6749202E3,1.4917726E3,1.1831475E3,8.293912E1,1.4088335E3,8.3880164E2,3.4434583E2,6.3742645E1,1.9196472E1,5.894531E2,8.193804E2,6.513982E2,1.8740344E2,2.651283E2,7.921755E1,5.8286633E1,5.456013E0,1.0366512E1,8.82996E0,5.8505206E2,4.401056E0,6.2614984E2,1.9323051E2,4.1204147E0,6.472778E2,1.0209858E2,8.530486E1,6.533679E1,1.9979149E2,4.5477905E0,7.466976E1,1.0037446E0,4.4522686E0,1.1389207E0,9.2275915E0,5.7897424E2,6.07783E0,1.1096845E0,3.2913713E0,2.5939474E2,3.667551E2,1.096196E2,8.3610916E1,6.1777294E1,5.855005E2,9.800966E1,4.088927E0,5.195892E1,3.3345947E1,1.3858831E1,5.147796E1,1.8293661E2,1.6854885E1,1.0018424E0,3.545948E0,7.225168E1,2.4180815E0],"tree_param":{"num_deleted":"0","num_feature":"210","num_nodes":"57","size_leaf_vector":"1"}},{"base_weights":[-3.4156308E-4,3.662052E-1,-6.5005267E-1,1.8708494E-2,6.6313744E-1,-9.0336835E-1,-1.2496555E-1,-2.0942873E-1,1.0979359E0,7.6225024E-1,-9.5849204E-1,-9.676463E-1,5.837725E-1,5.1230145E-1,-6.86389E-1,2.90455E-1,-6.586549E-1,1.1395483E0,-1.2548678E-1,-5.3049165E-1,8.477581E-1,-1.09219335E-1,4.2756966E-1,-1.2144038E-1,-1.0277122E0,1.1069788E-1,-7.879353E-1,-6.5672886E-1,7.413904E-1,-9.96103E-1,-1.5584241E-1,4.9885195E-2,-1.2777212E-1,-1.4434263E-1,1.0876565E-2,-2.270354E-2,1.1524391E-1,1.1989122E-2,-1.4860053E-1,9.407065E-2,-3.2519802E-2,-6.0415346E-2,8.408326E-2,1.5478145E-1,-8.008548E-2,2.1990791E-2,-1.0540893E-1,1.9692168E-2,-9.638124E-2,-9.9351965E-2,2.2268729E-1,9.613862E-2,-9.1985695E-2,-1.063025E-1,7.330128E-2,7.760141E-2,-9.013996E-2],"categories":[],"categories_nodes":[],"categories_segments":[],"categories_sizes":[],"default_left":[0,0,0,0,0,0,0,0,0,0,0,0,0,0,0,0,0,0,0,0,0,0,0,0,0,0,0,0,0,0,0,0,0,0,0,0,0,0,0,0,0,0,0,0,0,0,0,0,0,0,0,0,0,0,0,0,0],"id":20,"left_children":[1,3,5,7,9,11,13,15,17,19,21,23,25,27,29,31,33,35,-1,37,39,-1,41,43,45,-1,47,49,51,53,55,-1,-1,-1,-1,-1,-1,-1,-1,-1,-1,-1,-1,-1,-1,-1,-1,-1,-1,-1,-1,-1,-1,-1,-1,-1,-1],"loss_changes":[6.030607E2,1.6703352E2,1.2137421E2,1.8414532E2,1.4103479E2,5.9444427E1,1.0710924E2,1.3885103E2,1.4207596E1,9.144879E1,9.867054E0,2.9905212E1,1.9635326E1,3.8068554E1,2.5981667E1,9.6374626E1,1.9620108E2,2.530014E0,0E0,3.2300125E1,8.453125E1,0E0,2.717073E0,4.693531E1,1.8381592E1,0E0,1.541347E0,2.5058083E1,4.393814E1,1.2379517E1,4.2256123E1,0E0,0E0,0E0,0E0,0E0,0E0,0E0,0E0,0E0,0E0,0E0,0E0,0E0,0E0,0E0,0E0,0E0,0E0,0E0,0E0,0E0,0E0,0E0,0E0,0E0,0E0],"parents":[2147483647,0,0,1,1,2,2,3,3,4,4,5,5,6,6,7,7,8,8,9,9,10,10,11,11,12,12,13,13,14,14,15,15,16,16,17,17,19,19,20,20,22,22,23,23,24,24,26,26,27,27,28,28,29,29,30,30],"right_children":[2,4,6,8,10,12,14,16,18,20,22,24,26,28,30,32,34,36,-1,38,40,-1,42,44,46,-1,48,50,52,54,56,-1,-1,-1,-1,-1,-1,-1,-1,-1,-1,-1,-1,-1,-1,-1,-1,-1,-1,-1,-1,-1,-1,-1,-1,-1,-1],"split_conditions":[2.8E-3,2.397186E-3,3.9E-3,1.262E1,4.27E-1,3.952E1,8.5E-3,4.2222222E-4,-2.04E-1,6E-4,-5.33E-1,2.3E-3,1.08E-2,8E-4,7E-4,5.222222E-4,0E0,1.35E-3,-1.2548678E-1,1.1E-3,9.3E-3,-1.09219335E-1,4.061576E-3,1.23E-2,-4.332E1,1.1069788E-1,4E-3,3.22E-2,1.799E-2,6.6E-2,1.86E0,4.9885195E-2,-1.2777212E-1,-1.4434263E-1,1.0876565E-2,-2.270354E-2,1.1524391E-1,1.1989122E-2,-1.4860053E-1,9.407065E-2,-3.2519802E-2,-6.0415346E-2,8.408326E-2,1.5478145E-1,-8.008548E-2,2.1990791E-2,-1.0540893E-1,1.9692168E-2,-9.638124E-2,-9.9351965E-2,2.2268729E-1,9.613862E-2,-9.1985695E-2,-1.063025E-1,7.330128E-2,7.760141E-2,-9.013996E-2],"split_indices":[169,65,163,178,180,178,169,122,59,164,59,156,169,95,157,132,209,43,0,102,167,0,82,169,207,0,17,163,30,196,207,0,0,0,0,0,0,0,0,0,0,0,0,0,0,0,0,0,0,0,0,0,0,0,0,0,0],"split_type":[0,0,0,0,0,0,0,0,0,0,0,0,0,0,0,0,0,0,0,0,0,0,0,0,0,0,0,0,0,0,0,0,0,0,0,0,0,0,0,0,0,0,0,0,0,0,0,0,0,0,0,0,0,0,0,0,0],"sum_hessian":[2.5302783E3,1.6179293E3,9.1234894E2,7.4597986E2,8.7194946E2,6.1495715E2,2.9739175E2,6.164705E2,1.2950937E2,8.222256E2,4.9723904E1,5.898133E2,2.5143875E1,1.3932858E2,1.5806319E2,2.9195087E2,3.2451962E2,1.2776534E2,1.7440308E0,5.068876E1,7.715368E2,4.55428E1,4.181101E0,3.9291946E1,5.5052136E2,1.8341084E1,6.802791E0,2.2523825E1,1.1680475E2,9.924818E1,5.8815018E1,2.5830615E2,3.3644737E1,1.6001053E2,1.645091E2,1.0386928E0,1.2672665E2,3.0680323E1,2.0008436E1,7.150706E2,5.6466217E1,1.0636805E0,3.1174204E0,1.099649E1,2.8295458E1,1.1246209E1,5.3927515E2,1.0126442E0,5.790147E0,2.0755178E1,1.7686456E0,1.03517426E2,1.3287328E1,9.592097E1,3.3272104E0,2.6123253E1,3.2691765E1],"tree_param":{"num_deleted":"0","num_feature":"210","num_nodes":"57","size_leaf_vector":"1"}},{"base_weights":[-4.5519993E-3,3.4553513E-1,-6.3452876E-1,-3.4994045E-1,4.87395E-1,-8.8023436E-1,-1.4459305E-1,-9.4691026E-1,4.326006E-1,7.879635E-1,1.9881892E-1,-9.487913E-1,4.730168E-1,-8.664717E-1,3.7554973E-1,-1.0472385E0,1.0138524E0,7.8798234E-1,-1.0607901E0,3.658852E-1,1.0380104E0,-1.184354E-1,9.4962835E-1,-7.645718E-2,-1.0099384E0,1.1121601E-1,-8.7078047E-1,-9.278551E-1,1.6668274E0,-4.0436053E-1,7.231928E-1,-9.492885E-2,-2.541675E-1,1.0943995E-1,2.4183212E-2,1.16485834E-1,2.9024804E-2,-1.22136615E-1,6.988739E-2,7.7057056E-2,-3.0795364E-2,1.06461905E-1,-8.940997E-2,4.6994638E-2,-7.821187E-2,1.0199244E-1,-1.2483702E-1,1.6652845E-1,-6.6929124E-2,2.4568062E-2,-1.03700176E-1,-9.955695E-2,7.871247E-3,1.0327832E-1,-1.0091882E-1,2.5698584E-1,-1.0892127E-2,-8.302629E-2,2.527859E-1,8.642874E-2,-9.805058E-2],"categories":[],"categories_nodes":[],"categories_segments":[],"categories_sizes":[],"default_left":[0,0,0,0,0,0,0,0,0,0,0,0,0,0,0,0,0,0,0,0,0,0,0,0,0,0,0,0,0,0,0,0,0,0,0,0,0,0,0,0,0,0,0,0,0,0,0,0,0,0,0,0,0,0,0,0,0,0,0,0,0],"id":21,"left_children":[1,3,5,7,9,11,13,15,17,19,21,23,25,27,29,31,33,35,37,39,41,43,45,47,49,-1,51,53,55,57,59,-1,-1,-1,-1,-1,-1,-1,-1,-1,-1,-1,-1,-1,-1,-1,-1,-1,-1,-1,-1,-1,-1,-1,-1,-1,-1,-1,-1,-1,-1],"loss_changes":[5.260888E2,1.5144733E2,1.0244574E2,1.22034515E2,1.1034268E2,5.307852E1,1.0763456E2,3.017659E1,6.099434E1,6.544266E1,1.5524663E2,2.8740814E1,2.5034878E1,2.0205055E1,4.5517944E1,1.8269104E1,2.1492672E-1,1.6945225E1,7.1307526E0,6.392934E1,2.1059082E1,1.7949637E2,3.1181274E1,3.8773743E1,1.7408264E1,0E0,1.2149482E0,1.9825989E1,5.4052105E0,6.712539E1,2.8667854E1,0E0,0E0,0E0,0E0,0E0,0E0,0E0,0E0,0E0,0E0,0E0,0E0,0E0,0E0,0E0,0E0,0E0,0E0,0E0,0E0,0E0,0E0,0E0,0E0,0E0,0E0,0E0,0E0,0E0,0E0],"parents":[2147483647,0,0,1,1,2,2,3,3,4,4,5,5,6,6,7,7,8,8,9,9,10,10,11,11,12,12,13,13,14,14,15,15,16,16,17,17,18,18,19,19,20,20,21,21,22,22,23,23,24,24,26,26,27,27,28,28,29,29,30,30],"right_children":[2,4,6,8,10,12,14,16,18,20,22,24,26,28,30,32,34,36,38,40,42,44,46,48,50,-1,52,54,56,58,60,-1,-1,-1,-1,-1,-1,-1,-1,-1,-1,-1,-1,-1,-1,-1,-1,-1,-1,-1,-1,-1,-1,-1,-1,-1,-1,-1,-1,-1,-1],"split_conditions":[2.8E-3,1E-5,3.9E-3,1.89E-3,3.3333334E-5,3.818E1,1.28E-3,1.359E1,2.3444444E-3,1.32E-2,1.183E1,2.3E-3,1.14E-2,4.443E-1,9E-4,1.193E1,8.036E-2,2.2E0,6.708204E-5,1E-3,4.86E-1,-4.6E0,1.966E-2,3.5E-3,-4.332E1,1.1121601E-1,1.4E-3,1.82E-3,4.565E-1,4.587E-2,2.189515E0,-9.492885E-2,-2.541675E-1,1.0943995E-1,2.4183212E-2,1.16485834E-1,2.9024804E-2,-1.22136615E-1,6.988739E-2,7.7057056E-2,-3.0795364E-2,1.06461905E-1,-8.940997E-2,4.6994638E-2,-7.821187E-2,1.0199244E-1,-1.2483702E-1,1.6652845E-1,-6.6929124E-2,2.4568062E-2,-1.03700176E-1,-9.955695E-2,7.871247E-3,1.0327832E-1,-1.0091882E-1,2.5698584E-1,-1.0892127E-2,-8.302629E-2,2.527859E-1,8.642874E-2,-9.805058E-2],"split_indices":[169,39,163,37,132,178,37,207,124,185,178,156,169,199,95,177,30,207,83,176,180,207,47,167,207,0,157,52,19,43,87,0,0,0,0,0,0,0,0,0,0,0,0,0,0,0,0,0,0,0,0,0,0,0,0,0,0,0,0,0,0],"split_type":[0,0,0,0,0,0,0,0,0,0,0,0,0,0,0,0,0,0,0,0,0,0,0,0,0,0,0,0,0,0,0,0,0,0,0,0,0,0,0,0,0,0,0,0,0,0,0,0,0,0,0,0,0,0,0,0,0,0,0,0,0],"sum_hessian":[2.3833904E3,1.5323134E3,8.51077E2,2.593532E2,1.2729601E3,5.662851E2,2.8479196E2,1.4700151E2,1.12351715E2,6.226764E2,6.502837E2,5.3926434E2,2.7020742E1,1.189884E2,1.6580354E2,1.402891E2,6.712403E0,9.113637E1,2.1215345E1,2.3256712E2,3.9010925E2,4.5771753E2,1.9256616E2,3.5471535E1,5.0379282E2,1.8428205E1,8.592537E0,1.1679219E2,2.1962082E0,5.1069637E1,1.1473391E2,1.3319435E2,7.0947556E0,5.7001147E0,1.0122883E0,5.1102272E1,4.0034096E1,1.9721582E1,1.4937617E0,1.4521329E2,8.735385E1,3.8525262E2,4.8566346E0,2.427775E2,2.1494005E2,1.8711777E2,5.448395E0,8.5481415E0,2.6923393E1,1.0459144E1,4.9333368E2,7.5515337E0,1.0410031E0,4.1859655E0,1.12606224E2,1.1594101E0,1.0367981E0,4.5218533E1,5.851105E0,1.0641378E2,8.3201275E0],"tree_param":{"num_deleted":"0","num_feature":"210","num_nodes":"61","size_leaf_vector":"1"}},{"base_weights":[7.569627E-4,-8.890641E-1,2.5164297E-1,-9.8697907E-1,-4.89407E-1,7.664971E-1,2.2042863E-2,-9.960581E-1,5.0123762E-2,-8.2484263E-1,3.033771E-1,1.047366E-1,9.602703E-1,1.7513634E-1,-8.033786E-1,-1.0193908E0,-5.1869905E-1,-1.0658048E0,2.9780138E-1,-2.6872838E-1,2.3270987E-1,-1.2368068E0,4.1212434E-1,2.3461471E-1,1.0361056E0,-1.9784771E-1,4.9931002E-1,-1.2449626E0,-3.4587E-1,-1.0634764E-1,-7.781074E-2,1.1101712E-1,-8.1694074E-2,-1.0883075E-1,-2.1557396E-2,1.7972867E-1,-4.051827E-2,-8.239662E-2,5.4586973E-2,7.2682284E-2,-1.4162987E-1,7.615207E-2,-8.086773E-2,-3.1283793E-1,6.250985E-2,1.0597408E-1,-5.7953663E-2,-8.306154E-2,2.1367097E-2,6.657105E-2,-5.3708877E-2,-1.3714856E-1,6.330543E-2,-8.777946E-2,3.0303879E-2],"categories":[],"categories_nodes":[],"categories_segments":[],"categories_sizes":[],"default_left":[0,0,0,0,0,0,0,0,0,0,0,0,0,0,0,0,0,0,0,0,0,0,0,0,0,0,0,0,0,0,0,0,0,0,0,0,0,0,0,0,0,0,0,0,0,0,0,0,0,0,0,0,0,0,0],"id":22,"left_children":[1,3,5,7,9,11,13,15,-1,17,19,21,23,25,27,29,31,33,35,37,-1,39,41,43,45,47,49,51,53,-1,-1,-1,-1,-1,-1,-1,-1,-1,-1,-1,-1,-1,-1,-1,-1,-1,-1,-1,-1,-1,-1,-1,-1,-1,-1],"loss_changes":[5.0638E2,1.903952E1,2.0914459E2,5.900238E0,2.688475E1,6.9872406E1,1.5490448E2,3.900177E0,0E0,1.9428654E1,3.59483E1,5.1938953E1,2.297763E1,1.2511264E2,3.8316948E1,3.1940613E0,1.0897975E1,8.823776E-1,1.4711824E1,1.161315E1,0E0,9.31171E0,4.421549E1,5.6082634E1,1.5191498E1,1.25554276E2,9.580261E1,2.3966537E1,3.325824E1,0E0,0E0,0E0,0E0,0E0,0E0,0E0,0E0,0E0,0E0,0E0,0E0,0E0,0E0,0E0,0E0,0E0,0E0,0E0,0E0,0E0,0E0,0E0,0E0,0E0,0E0],"parents":[2147483647,0,0,1,1,2,2,3,3,4,4,5,5,6,6,7,7,9,9,10,10,11,11,12,12,13,13,14,14,15,15,16,16,17,17,18,18,19,19,21,21,22,22,23,23,24,24,25,25,26,26,27,27,28,28],"right_children":[2,4,6,8,10,12,14,16,-1,18,20,22,24,26,28,30,32,34,36,38,-1,40,42,44,46,48,50,52,54,-1,-1,-1,-1,-1,-1,-1,-1,-1,-1,-1,-1,-1,-1,-1,-1,-1,-1,-1,-1,-1,-1,-1,-1,-1,-1],"split_conditions":[1E-3,4.1233604E-3,5E-4,1.71E-3,7E-4,-4.08E0,2.01E-2,1.129E-1,5.0123762E-2,2.441E1,3.528E-2,1E-4,1.8E-3,2.7E-3,6.5E-2,9E-4,1E-4,9E-4,2.46E-2,7E-5,2.3270987E-1,-1.377E1,2.75E-2,2.5E-4,3.739E-2,6E-5,7.2E-3,2.25E-2,-3.21E0,-1.0634764E-1,-7.781074E-2,1.1101712E-1,-8.1694074E-2,-1.0883075E-1,-2.1557396E-2,1.7972867E-1,-4.051827E-2,-8.239662E-2,5.4586973E-2,7.2682284E-2,-1.4162987E-1,7.615207E-2,-8.086773E-2,-3.1283793E-1,6.250985E-2,1.0597408E-1,-5.7953663E-2,-8.306154E-2,2.1367097E-2,6.657105E-2,-5.3708877E-2,-1.3714856E-1,6.330543E-2,-8.777946E-2,3.0303879E-2],"split_indices":[95,74,169,53,157,179,150,202,0,177,43,53,184,163,90,155,155,95,169,33,0,208,194,46,32,39,169,201,179,0,0,0,0,0,0,0,0,0,0,0,0,0,0,0,0,0,0,0,0,0,0,0,0,0,0],"split_type":[0,0,0,0,0,0,0,0,0,0,0,0,0,0,0,0,0,0,0,0,0,0,0,0,0,0,0,0,0,0,0,0,0,0,0,0,0,0,0,0,0,0,0,0,0,0,0,0,0,0,0,0,0,0,0],"sum_hessian":[2.266282E3,4.9788443E2,1.7683975E3,3.987276E2,9.9156845E1,5.4467737E2,1.2237201E3,3.9663855E2,2.0890462E0,6.9647705E1,2.9509142E1,1.23715034E2,4.2096234E2,1.0329276E3,1.9079248E2,3.7707227E2,1.9566267E1,5.7381973E1,1.226573E1,2.3681578E1,5.8275642E0,2.249886E1,1.0121618E2,4.0217876E1,3.8074448E2,4.8048563E2,5.52442E2,9.621006E1,9.458241E1,3.1593854E2,6.1133743E1,2.6067748E0,1.6959494E1,5.5629635E1,1.752339E0,3.4181228E0,8.847608E0,1.4075846E1,9.605731E0,1.6289493E0,2.086991E1,7.898631E1,2.2229862E1,3.4545388E0,3.676334E1,3.75594E2,5.150489E0,1.8894217E2,2.915435E2,4.76323E2,7.6119026E1,9.0390144E1,5.8199215E0,5.178247E1,4.2799942E1],"tree_param":{"num_deleted":"0","num_feature":"210","num_nodes":"55","size_leaf_vector":"1"}},{"base_weights":[2.072274E-3,-7.947015E-1,2.454355E-1,-9.1786385E-1,-3.2746485E-1,7.337732E-1,3.3733524E-2,-9.6548074E-1,2.4099351E-1,-7.885833E-1,2.6630598E-1,-5.1598835E-1,8.7451077E-1,1.7553133E-1,-7.1728224E-1,-9.811033E-1,8.391639E-1,2.612479E0,-1.0014373E-1,-8.9586866E-1,8.3647484E-1,-9.488132E-1,8.4941775E-1,-9.5479435E-1,3.7942114E-1,5.55261E-1,1.0238314E0,3.3249834E-1,-4.9286118E-1,-1.1677482E0,-2.9357475E-1,-6.4189285E-2,-1.0253569E-1,1.8969333E-1,-6.409756E-2,3.6491677E-1,3.7074853E-2,-9.9897936E-2,3.6704566E-2,-7.254444E-2,1.6846275E-1,-1.1446623E-1,5.057579E-2,1.3815436E-1,-6.639926E-2,-1.15583375E-1,8.447128E-2,1.3098662E-1,-1.02515094E-1,-7.4936256E-2,9.043011E-2,1.0521301E-1,-9.404644E-2,-3.7053545E-4,6.855449E-2,-2.7501477E-2,-1.3634057E-1,-1.306E-1,8.845111E-2,-7.658262E-2,3.6395293E-2],"categories":[],"categories_nodes":[],"categories_segments":[],"categories_sizes":[],"default_left":[0,0,0,0,0,0,0,0,0,0,0,0,0,0,0,0,0,0,0,0,0,0,0,0,0,0,0,0,0,0,0,0,0,0,0,0,0,0,0,0,0,0,0,0,0,0,0,0,0,0,0,0,0,0,0,0,0,0,0,0,0],"id":23,"left_children":[1,3,5,7,9,11,13,15,17,19,21,23,25,27,29,31,33,35,-1,37,39,41,43,45,47,49,51,53,55,57,59,-1,-1,-1,-1,-1,-1,-1,-1,-1,-1,-1,-1,-1,-1,-1,-1,-1,-1,-1,-1,-1,-1,-1,-1,-1,-1,-1,-1,-1,-1],"loss_changes":[4.226142E2,2.9044373E1,1.7257571E2,2.247113E1,2.9761776E1,8.924759E1,1.24263596E2,1.1742554E1,5.1839127E1,1.1385281E1,3.4765003E1,2.0686039E1,2.107962E1,1.03123985E2,3.5031075E1,5.112732E0,7.2640224E0,1.26385765E1,0E0,7.8816223E0,6.9121876E0,5.1408777E0,2.7423563E1,1.3637804E1,2.45107E1,6.7570984E1,1.8122406E1,9.440388E1,3.5095936E1,2.6547348E1,3.0349108E1,0E0,0E0,0E0,0E0,0E0,0E0,0E0,0E0,0E0,0E0,0E0,0E0,0E0,0E0,0E0,0E0,0E0,0E0,0E0,0E0,0E0,0E0,0E0,0E0,0E0,0E0,0E0,0E0,0E0,0E0],"parents":[2147483647,0,0,1,1,2,2,3,3,4,4,5,5,6,6,7,7,8,8,9,9,10,10,11,11,12,12,13,13,14,14,15,15,16,16,17,17,19,19,20,20,21,21,22,22,23,23,24,24,25,25,26,26,27,27,28,28,29,29,30,30],"right_children":[2,4,6,8,10,12,14,16,18,20,22,24,26,28,30,32,34,36,-1,38,40,42,44,46,48,50,52,54,56,58,60,-1,-1,-1,-1,-1,-1,-1,-1,-1,-1,-1,-1,-1,-1,-1,-1,-1,-1,-1,-1,-1,-1,-1,-1,-1,-1,-1,-1,-1,-1],"split_conditions":[1.3E-3,7.6E-4,5E-4,9.33E-2,4E-4,4E-4,2.01E-2,4.587E-2,1.6E-1,5.2E-3,-2.226E1,2.172E-2,1.32E-2,6.9E-3,1.9067459E-2,2E-4,4E-4,4.472136E-5,-1.0014373E-1,2.257E-1,1.1E-3,1.93E-3,5.05E-2,-1.03E0,5E-4,7E-4,4.126E-1,3E-3,1.2E-3,2.54E-2,-2.55E0,-6.4189285E-2,-1.0253569E-1,1.8969333E-1,-6.409756E-2,3.6491677E-1,3.7074853E-2,-9.9897936E-2,3.6704566E-2,-7.254444E-2,1.6846275E-1,-1.1446623E-1,5.057579E-2,1.3815436E-1,-6.639926E-2,-1.15583375E-1,8.447128E-2,1.3098662E-1,-1.02515094E-1,-7.4936256E-2,9.043011E-2,1.0521301E-1,-9.404644E-2,-3.7053545E-4,6.855449E-2,-2.7501477E-2,-1.3634057E-1,-1.306E-1,8.845111E-2,-7.658262E-2,3.6395293E-2],"split_indices":[95,40,169,47,95,170,150,43,148,184,27,46,185,188,60,46,5,85,0,112,7,35,19,179,101,196,0,163,191,201,179,0,0,0,0,0,0,0,0,0,0,0,0,0,0,0,0,0,0,0,0,0,0,0,0,0,0,0,0,0,0],"split_type":[0,0,0,0,0,0,0,0,0,0,0,0,0,0,0,0,0,0,0,0,0,0,0,0,0,0,0,0,0,0,0,0,0,0,0,0,0,0,0,0,0,0,0,0,0,0,0,0,0,0,0,0,0,0,0,0,0,0,0,0,0],"sum_hessian":[2.17748E3,5.0893988E2,1.66854E3,4.0200742E2,1.0693247E2,5.0384457E2,1.1646954E3,3.8630133E2,1.5706076E1,6.0004944E1,4.692753E1,5.072613E1,4.5311844E2,9.8036163E2,1.8433388E2,3.8343832E2,2.8630266E0,5.020499E0,1.0685576E1,5.6709717E1,3.2952263E0,1.5013807E1,3.1913721E1,3.3998463E1,1.672767E1,1.4590018E2,3.0721826E2,7.9432324E2,1.8603836E2,8.849457E1,9.58393E1,4.603992E1,3.3739838E2,1.5055248E0,1.3575017E0,3.003633E0,2.0168662E0,5.2622356E1,4.0873623E0,1.2105712E0,2.0846553E0,1.3419951E1,1.5938562E0,2.3676151E1,8.237569E0,3.090363E1,3.0948327E0,1.0102676E1,6.6249933E0,3.0553185E1,1.15347E2,3.0331296E2,3.9053147E0,4.0737372E2,3.8694952E2,1.4985446E2,3.61839E1,8.325E1,5.244565E0,5.5682297E1,4.0157005E1],"tree_param":{"num_deleted":"0","num_feature":"210","num_nodes":"61","size_leaf_vector":"1"}},{"base_weights":[-3.8837127E-3,-8.337368E-1,2.11922E-1,-9.4416463E-1,-3.552447E-1,6.571426E-1,-2.0637263E-2,-9.57617E-1,1.0251788E-1,-7.2234154E-1,7.121366E-1,-4.554169E-1,7.845879E-1,-7.081131E-1,1.6544624E-1,-9.9008125E-1,-3.5885966E-1,1.3591096E0,-9.3070966E-1,1.5398642E0,-7.3440003E-1,5.904179E-2,-1.0957407E0,4.5120612E-1,9.882614E-1,-1.0116161E0,-3.34452E-2,4.1766033E-1,-3.8036573E-1,-9.9920556E-2,5.6380358E-2,-9.8282166E-2,1.0602381E-1,2.0465262E-1,-6.404873E-2,1.05856396E-1,-9.917041E-2,3.8548883E-2,2.4972327E-1,5.0976377E-2,-9.988942E-2,-6.726569E-2,1.0205468E-1,-1.1301001E-1,-2.3744442E-2,8.430777E-2,-1.6983597E-2,1.0323893E-1,-4.039743E-2,-1.0811683E-1,9.758236E-2,7.920774E-2,-8.0676965E-2,6.2302765E-2,-4.300744E-2,-9.515806E-2,3.5642765E-2],"categories":[],"categories_nodes":[],"categories_segments":[],"categories_sizes":[],"default_left":[0,0,0,0,0,0,0,0,0,0,0,0,0,0,0,0,0,0,0,0,0,0,0,0,0,0,0,0,0,0,0,0,0,0,0,0,0,0,0,0,0,0,0,0,0,0,0,0,0,0,0,0,0,0,0,0,0],"id":24,"left_children":[1,3,5,7,9,11,13,15,-1,17,19,21,23,25,27,29,31,33,35,37,39,41,43,45,47,49,51,53,55,-1,-1,-1,-1,-1,-1,-1,-1,-1,-1,-1,-1,-1,-1,-1,-1,-1,-1,-1,-1,-1,-1,-1,-1,-1,-1,-1,-1],"loss_changes":[3.696917E2,2.2175873E1,1.6964227E2,1.0136108E1,3.244445E1,8.006612E1,1.3791219E2,6.325989E0,0E0,2.7778234E1,2.6702904E1,1.9306238E1,3.3827026E1,4.698751E1,1.1696367E2,5.177948E0,1.8083984E1,9.5159E0,7.8642273E0,1.4407066E1,3.289939E0,2.4140305E1,5.005741E-1,4.7177017E1,1.9615143E1,2.2944168E1,4.678559E1,1.0138449E2,1.13420944E2,0E0,0E0,0E0,0E0,0E0,0E0,0E0,0E0,0E0,0E0,0E0,0E0,0E0,0E0,0E0,0E0,0E0,0E0,0E0,0E0,0E0,0E0,0E0,0E0,0E0,0E0,0E0,0E0],"parents":[2147483647,0,0,1,1,2,2,3,3,4,4,5,5,6,6,7,7,9,9,10,10,11,11,12,12,13,13,14,14,15,15,16,16,17,17,18,18,19,19,20,20,21,21,22,22,23,23,24,24,25,25,26,26,27,27,28,28],"right_children":[2,4,6,8,10,12,14,16,-1,18,20,22,24,26,28,30,32,34,36,38,40,42,44,46,48,50,52,54,56,-1,-1,-1,-1,-1,-1,-1,-1,-1,-1,-1,-1,-1,-1,-1,-1,-1,-1,-1,-1,-1,-1,-1,-1,-1,-1,-1,-1],"split_conditions":[1E-3,1.129E-1,6E-4,4.587E-2,7E-4,5E-4,1E-5,1.95E-2,1.0251788E-1,3.4E-3,6.3E-4,2.97E-2,1.9067459E-2,1.3E-3,9E-4,3.4E-3,1.6E-3,3.3777778E-3,9E-5,1.3E-3,6E-4,2.2271057E-4,-3.14E0,2.129E0,3.585E-1,5.6E-3,1.686E-2,5.9E-3,7.8E-3,-9.9920556E-2,5.6380358E-2,-9.8282166E-2,1.0602381E-1,2.0465262E-1,-6.404873E-2,1.05856396E-1,-9.917041E-2,3.8548883E-2,2.4972327E-1,5.0976377E-2,-9.988942E-2,-6.726569E-2,1.0205468E-1,-1.1301001E-1,-2.3744442E-2,8.430777E-2,-1.6983597E-2,1.0323893E-1,-4.039743E-2,-1.0811683E-1,9.758236E-2,7.920774E-2,-8.0676965E-2,6.2302765E-2,-4.300744E-2,-9.515806E-2,3.5642765E-2],"split_indices":[95,202,169,43,157,170,39,180,0,167,42,104,60,157,175,114,158,140,40,196,156,83,179,58,0,163,47,169,172,0,0,0,0,0,0,0,0,0,0,0,0,0,0,0,0,0,0,0,0,0,0,0,0,0,0,0,0],"split_type":[0,0,0,0,0,0,0,0,0,0,0,0,0,0,0,0,0,0,0,0,0,0,0,0,0,0,0,0,0,0,0,0,0,0,0,0,0,0,0,0,0,0,0,0,0,0,0,0,0,0,0,0,0,0,0,0,0],"sum_hessian":[2.0623264E3,4.250372E2,1.6372892E3,3.4454816E2,8.048906E1,5.6115894E2,1.0761302E3,3.427208E2,1.8273433E0,6.0131664E1,2.0357395E1,5.741035E1,5.0374857E2,2.2863708E2,8.4749316E2,3.2447443E2,1.8246378E1,4.969291E0,5.5162373E1,1.2907204E1,7.450192E0,3.2337254E1,2.5073097E1,1.9226161E2,3.1148697E2,1.57352E2,7.128508E1,5.798057E2,2.6768744E2,3.2293515E2,1.5392851E0,1.2887372E1,5.359007E0,3.6805363E0,1.288755E0,1.1544982E0,5.4007874E1,6.487438E0,6.4197655E0,1.1435742E0,6.3066177E0,1.853367E1,1.3803584E1,2.3803513E1,1.2695853E0,1.1766108E2,7.4600525E1,3.02168E2,9.31895E0,1.524721E2,4.879899E0,3.4467175E1,3.68179E1,4.6695013E2,1.1285558E2,1.5062256E2,1.17064896E2],"tree_param":{"num_deleted":"0","num_feature":"210","num_nodes":"57","size_leaf_vector":"1"}},{"base_weights":[-1.313762E-3,-4.2191914E-1,4.323636E-1,-5.720492E-1,4.940799E-1,5.5269736E-1,-6.023054E-1,-6.9318056E-1,3.9664008E-2,-1.0201833E-1,9.657956E-1,6.7399746E-1,-2.3736186E-1,-8.296129E-1,1.0279516E-1,-9.813033E-2,-8.3415896E-1,-6.192404E-1,7.1950066E-1,-7.1697664E-1,9.429084E-1,1.0591019E0,-1.3626067E-1,3.9928243E-1,9.260651E-1,-4.5157415E-1,8.5696405E-1,8.6692226E-1,-1.0459541E0,-9.305819E-2,3.5113797E-2,-9.351745E-2,-1.0207308E-3,8.7874204E-2,-8.208045E-2,1.054876E-1,-8.569251E-2,-1.5950528E-1,1.5526662E-2,-1.16585605E-1,1.10149525E-1,1.107564E-1,-6.949707E-2,6.5705995E-3,8.582463E-2,1.0052606E-1,-7.16469E-5,-6.6591196E-2,1.0274023E-1,-5.502915E-2,1.147789E-1,-1.6502326E-2,9.914696E-2,-1.1283343E-1,4.4690974E-2],"categories":[],"categories_nodes":[],"categories_segments":[],"categories_sizes":[],"default_left":[0,0,0,0,0,0,0,0,0,0,0,0,0,0,0,0,0,0,0,0,0,0,0,0,0,0,0,0,0,0,0,0,0,0,0,0,0,0,0,0,0,0,0,0,0,0,0,0,0,0,0,0,0,0,0],"id":25,"left_children":[1,3,5,7,9,11,13,15,17,19,21,23,25,27,-1,29,31,33,35,37,39,41,-1,43,45,47,49,51,53,-1,-1,-1,-1,-1,-1,-1,-1,-1,-1,-1,-1,-1,-1,-1,-1,-1,-1,-1,-1,-1,-1,-1,-1,-1,-1],"loss_changes":[3.572275E2,1.3700215E2,1.2038397E2,6.3355072E1,3.9615635E1,8.298825E1,3.825656E1,5.9768066E1,6.414833E1,4.115084E1,1.8508171E1,5.1531525E1,2.752658E1,3.3623077E1,0E0,5.185757E1,4.7986572E1,2.2688719E1,3.8153625E1,3.1051744E1,9.23262E0,7.2373734E0,0E0,5.5121067E1,2.8633575E1,3.1584305E1,8.529516E0,1.5295968E0,1.028257E1,0E0,0E0,0E0,0E0,0E0,0E0,0E0,0E0,0E0,0E0,0E0,0E0,0E0,0E0,0E0,0E0,0E0,0E0,0E0,0E0,0E0,0E0,0E0,0E0,0E0,0E0],"parents":[2147483647,0,0,1,1,2,2,3,3,4,4,5,5,6,6,7,7,8,8,9,9,10,10,11,11,12,12,13,13,15,15,16,16,17,17,18,18,19,19,20,20,21,21,23,23,24,24,25,25,26,26,27,27,28,28],"right_children":[2,4,6,8,10,12,14,16,18,20,22,24,26,28,-1,30,32,34,36,38,40,42,-1,44,46,48,50,52,54,-1,-1,-1,-1,-1,-1,-1,-1,-1,-1,-1,-1,-1,-1,-1,-1,-1,-1,-1,-1,-1,-1,-1,-1,-1,-1],"split_conditions":[1.6682026E-3,2E-4,5.76E-2,1.9E-3,1.12E1,7.4E-3,-4.11E-1,1E-4,7E-4,-8.6E-1,1.31E-1,1.74E-2,8.77E0,-4.577E1,1.0279516E-1,1E-5,4.034365E-3,6.6249527E-4,6.3631753E-4,9E-4,2.39E-2,1.08E-2,-1.3626067E-1,8E-4,2.6324894E-3,0E0,7E-4,5.1E-4,9.337E-2,-9.305819E-2,3.5113797E-2,-9.351745E-2,-1.0207308E-3,8.7874204E-2,-8.208045E-2,1.054876E-1,-8.569251E-2,-1.5950528E-1,1.5526662E-2,-1.16585605E-1,1.10149525E-1,1.107564E-1,-6.949707E-2,6.5705995E-3,8.582463E-2,1.0052606E-1,-7.16469E-5,-6.6591196E-2,1.0274023E-1,-5.502915E-2,1.147789E-1,-1.6502326E-2,9.914696E-2,-1.1283343E-1,4.4690974E-2],"split_indices":[65,91,194,190,28,167,59,192,157,179,59,185,208,208,0,39,74,70,72,166,90,169,0,190,68,59,154,39,52,0,0,0,0,0,0,0,0,0,0,0,0,0,0,0,0,0,0,0,0,0,0,0,0,0,0],"split_type":[0,0,0,0,0,0,0,0,0,0,0,0,0,0,0,0,0,0,0,0,0,0,0,0,0,0,0,0,0,0,0,0,0,0,0,0,0,0,0,0,0,0,0,0,0,0,0,0,0,0,0,0,0,0,0],"sum_hessian":[1.9564086E3,9.931863E2,9.6322235E2,8.5365045E2,1.3953581E2,8.632865E2,9.993585E1,7.1244E2,1.4121043E2,6.198732E1,7.7548485E1,7.4851215E2,1.1477437E2,8.813786E1,1.1797987E1,1.3678508E2,5.7565497E2,7.175444E1,6.9455986E1,3.9219677E1,2.2767643E1,7.508474E1,2.463743E0,3.5940253E2,3.891096E2,9.64766E1,1.8297768E1,9.628051E0,7.850981E1,4.7570374E1,8.9214714E1,5.126675E2,6.2987457E1,8.111542E0,6.36429E1,5.754456E1,1.1911425E1,1.9131533E1,2.0088146E1,1.1482037E0,2.1619438E1,7.342472E1,1.6600214E0,2.0879375E2,1.506088E2,3.5839896E2,3.0710648E1,8.474486E1,1.173174E1,2.9810014E0,1.5316766E1,1.0018849E0,8.626166E0,7.4635414E1,3.8744001E0],"tree_param":{"num_deleted":"0","num_feature":"210","num_nodes":"55","size_leaf_vector":"1"}},{"base_weights":[-7.2726966E-3,-4.004101E-1,3.9643472E-1,-5.495877E-1,5.103194E-1,5.152873E-1,-6.184345E-1,-7.3904145E-1,-2.1857631E-1,-5.959363E-1,7.52681E-1,6.6150826E-1,-1.3360304E-1,2.7006003E-1,-1.0733181E0,-8.4078115E-1,6.5087075E-3,4.710001E-1,-5.009324E-1,3.2048994E-1,-1.4229058E0,-4.3608525E-1,8.6308163E-1,1.2570018E-1,8.185636E-1,1.094819E-1,-1.1531094E0,-1.05166495E-1,7.859795E-1,-1.1601132E0,2.1829844E-1,-8.646922E-2,9.42355E-2,3.4877997E-2,-1.3611235E-1,-2.7466139E-2,1.0716482E-1,8.755568E-2,-5.917979E-2,9.250286E-2,-8.5232615E-2,-1.8407877E-1,3.9219573E-2,-1.1425952E-1,8.850185E-2,-3.1604093E-2,9.600856E-2,7.8693435E-2,-6.6337585E-2,8.488069E-2,-5.0665714E-2,-3.874386E-2,6.315922E-2,2.69734E-2,-1.2144136E-1,9.743719E-2,-7.402795E-2,6.699207E-2,-1.2180644E-1,9.5087394E-2,-6.9360234E-2],"categories":[],"categories_nodes":[],"categories_segments":[],"categories_sizes":[],"default_left":[0,0,0,0,0,0,0,0,0,0,0,0,0,0,0,0,0,0,0,0,0,0,0,0,0,0,0,0,0,0,0,0,0,0,0,0,0,0,0,0,0,0,0,0,0,0,0,0,0,0,0,0,0,0,0,0,0,0,0,0,0],"id":26,"left_children":[1,3,5,7,9,11,13,15,17,19,21,23,25,27,29,31,33,35,37,39,41,43,45,47,49,51,53,-1,55,57,59,-1,-1,-1,-1,-1,-1,-1,-1,-1,-1,-1,-1,-1,-1,-1,-1,-1,-1,-1,-1,-1,-1,-1,-1,-1,-1,-1,-1,-1,-1],"loss_changes":[2.990113E2,1.2995613E2,1.124353E2,5.1300583E1,3.6605663E1,7.908717E1,3.985654E1,3.956134E1,5.867354E1,1.9245926E1,1.4952438E1,5.709137E1,3.827871E1,2.3976145E1,7.5345E0,2.037973E1,3.0250994E1,3.9576496E1,2.721243E1,9.705543E0,1.0746761E1,1.0440441E1,1.1965729E1,8.152244E1,2.1488129E1,3.273323E1,2.9204674E0,0E0,7.9067287E0,7.2871704E0,3.9538484E0,0E0,0E0,0E0,0E0,0E0,0E0,0E0,0E0,0E0,0E0,0E0,0E0,0E0,0E0,0E0,0E0,0E0,0E0,0E0,0E0,0E0,0E0,0E0,0E0,0E0,0E0,0E0,0E0,0E0,0E0],"parents":[2147483647,0,0,1,1,2,2,3,3,4,4,5,5,6,6,7,7,8,8,9,9,10,10,11,11,12,12,13,13,14,14,15,15,16,16,17,17,18,18,19,19,20,20,21,21,22,22,23,23,24,24,25,25,26,26,28,28,29,29,30,30],"right_children":[2,4,6,8,10,12,14,16,18,20,22,24,26,28,30,32,34,36,38,40,42,44,46,48,50,52,54,-1,56,58,60,-1,-1,-1,-1,-1,-1,-1,-1,-1,-1,-1,-1,-1,-1,-1,-1,-1,-1,-1,-1,-1,-1,-1,-1,-1,-1,-1,-1,-1,-1],"split_conditions":[1.6682026E-3,2E-4,4.75E-2,3E-3,1.8E-3,1.253E-2,1E-4,1.9E-3,7.7777775E-5,3.9E-3,1E-3,3.08E-3,1.32E-2,4E-4,1.9E-3,4.287E1,5E-3,6.63E-3,3.3E-3,9E-4,2.6666667E-4,2.934E1,3.7E-3,2.48E0,2.1E-2,4.3E-3,6E-4,-1.05166495E-1,2.3729E-1,-5.1729E1,6.9E-3,-8.646922E-2,9.42355E-2,3.4877997E-2,-1.3611235E-1,-2.7466139E-2,1.0716482E-1,8.755568E-2,-5.917979E-2,9.250286E-2,-8.5232615E-2,-1.8407877E-1,3.9219573E-2,-1.1425952E-1,8.850185E-2,-3.1604093E-2,9.600856E-2,7.8693435E-2,-6.6337585E-2,8.488069E-2,-5.0665714E-2,-3.874386E-2,6.315922E-2,2.69734E-2,-1.2144136E-1,9.743719E-2,-7.402795E-2,6.699207E-2,-1.2180644E-1,9.5087394E-2,-6.9360234E-2],"split_indices":[65,91,104,163,164,47,42,190,136,104,95,43,94,170,157,27,114,43,172,169,128,177,171,207,93,14,19,0,30,57,152,0,0,0,0,0,0,0,0,0,0,0,0,0,0,0,0,0,0,0,0,0,0,0,0,0,0,0,0,0,0],"split_type":[0,0,0,0,0,0,0,0,0,0,0,0,0,0,0,0,0,0,0,0,0,0,0,0,0,0,0,0,0,0,0,0,0,0,0,0,0,0,0,0,0,0,0,0,0,0,0,0,0,0,0,0,0,0,0,0,0,0,0,0,0],"sum_hessian":[1.8819808E3,9.534766E2,9.2850415E2,8.196194E2,1.3385725E2,8.31606E2,9.689813E1,5.2048706E2,2.9913235E2,2.3793474E1,1.1006378E2,6.7865784E2,1.529482E2,3.294843E1,6.3949703E1,4.578763E2,6.2610733E1,8.670684E1,2.124255E2,1.1576808E1,1.2216666E1,9.102311E0,1.0096147E2,1.5424338E2,5.244144E2,1.2422206E2,2.8726141E1,8.958747E0,2.3989683E1,6.0018353E1,3.9313505E0,4.523259E2,5.5503964E0,5.0673798E1,1.19369335E1,3.892588E1,4.778096E1,1.2619623E1,1.998059E2,7.7785563E0,3.7982516E0,9.918929E0,2.2977374E0,6.018704E0,3.0836077E0,7.5028815E0,9.345859E1,8.392128E1,7.032209E1,5.130651E2,1.1349318E1,6.3778534E1,6.0443527E1,1.0461226E0,2.768002E1,2.167575E1,2.3139317E0,1.5181091E0,5.8500244E1,2.156327E0,1.7750237E0],"tree_param":{"num_deleted":"0","num_feature":"210","num_nodes":"61","size_leaf_vector":"1"}},{"base_weights":[-2.386243E-3,-7.883187E-1,1.7472E-1,-9.2217994E-1,-2.7211642E-1,-5.755183E-3,6.697005E-1,-9.676161E-1,-1.9953673E-1,-6.2260485E-1,6.2524587E-1,-2.3232737E-1,7.3603606E-1,-8.7178254E-1,8.536296E-1,-3.2667637E-1,-1.0130931E0,-5.4303426E-1,1.8914752E-1,-1.04608156E-1,2.1884573E-1,1.2847182E0,-7.586764E-1,3.7955776E-1,-6.732363E-1,9.223197E-1,-7.485888E-1,9.385707E-2,-1.0875995E0,9.3962675E-1,-1.6786178E0,-1.05573766E-1,6.388784E-2,2.0962693E-2,-1.0194587E-1,-8.067465E-2,1.0605436E-1,1.2894498E-1,-9.043706E-2,1.7384453E-2,2.1570133E-1,-9.971484E-2,3.4266323E-2,-5.333511E-2,7.449632E-2,-1.9407721E-2,-1.6464964E-1,-6.596204E-2,9.96016E-2,8.7062076E-2,-1.3209365E-1,-1.1237421E-1,1.1548174E-2,1.9461079E-2,1.0298572E-1,-1.9421963E-1,5.5573076E-2],"categories":[],"categories_nodes":[],"categories_segments":[],"categories_sizes":[],"default_left":[0,0,0,0,0,0,0,0,0,0,0,0,0,0,0,0,0,0,0,0,0,0,0,0,0,0,0,0,0,0,0,0,0,0,0,0,0,0,0,0,0,0,0,0,0,0,0,0,0,0,0,0,0,0,0,0,0],"id":27,"left_children":[1,3,5,7,9,11,13,15,17,19,21,23,25,27,29,31,33,35,-1,-1,37,39,41,43,45,47,49,-1,51,53,55,-1,-1,-1,-1,-1,-1,-1,-1,-1,-1,-1,-1,-1,-1,-1,-1,-1,-1,-1,-1,-1,-1,-1,-1,-1,-1],"loss_changes":[2.5130093E2,2.2691467E1,1.3162488E2,8.449921E0,2.2338743E1,1.818053E2,1.1236339E2,6.8802795E0,1.3116409E1,1.8290695E1,1.931969E1,2.2380322E2,7.068773E1,1.7610786E1,7.8279816E1,1.3251874E1,2.0080109E0,7.2975817E0,0E0,0E0,2.2566631E1,1.317638E1,2.2105875E0,1.1637085E2,2.2443658E2,2.6926575E1,2.7811764E1,0E0,1.7995872E0,2.2742554E1,8.103943E0,0E0,0E0,0E0,0E0,0E0,0E0,0E0,0E0,0E0,0E0,0E0,0E0,0E0,0E0,0E0,0E0,0E0,0E0,0E0,0E0,0E0,0E0,0E0,0E0,0E0,0E0],"parents":[2147483647,0,0,1,1,2,2,3,3,4,4,5,5,6,6,7,7,8,8,9,9,10,10,11,11,12,12,13,13,14,14,15,15,16,16,17,17,20,20,21,21,22,22,23,23,24,24,25,25,26,26,28,28,29,29,30,30],"right_children":[2,4,6,8,10,12,14,16,18,20,22,24,26,28,30,32,34,36,-1,-1,38,40,42,44,46,48,50,-1,52,54,56,-1,-1,-1,-1,-1,-1,-1,-1,-1,-1,-1,-1,-1,-1,-1,-1,-1,-1,-1,-1,-1,-1,-1,-1,-1,-1],"split_conditions":[9E-4,1.129E-1,-2.9E-1,2.5E-3,7E-4,1.183E1,2.5E-3,1.9E-3,3.08E-2,1.973E1,2.6E-3,-1.277E1,1.081E-1,5E-4,